<?xml version="1.0"?>
<opencv_storage>
<opencv_ml_svm>
  <format>3</format>
  <svmType>C_SVC</svmType>
  <kernel>
    <type>RBF</type>
    <gamma>8.9999999999999997e-02</gamma></kernel>
  <C>10.</C>
  <term_criteria><epsilon>1.0000000000000000e-02</epsilon>
    <iterations>1000</iterations></term_criteria>
  <var_count>324</var_count>
  <class_count>2</class_count>
  <class_labels type_id="opencv-matrix">
    <rows>2</rows>
    <cols>1</cols>
    <dt>i</dt>
    <data>
      -1 1</data></class_labels>
  <sv_total>32</sv_total>
  <support_vectors>
    <_>
      8.53203610e-02 5.05113788e-02 4.19098437e-02 6.70631006e-02
      1.09968394e-01 1.44546613e-01 2.36407802e-01 1.06881179e-01
      2.11932570e-01 7.61827603e-02 1.24046475e-01 5.37403487e-02
      3.64957303e-02 1.12456322e-01 1.18260793e-01 1.35638401e-01
      1.19569473e-01 8.71291384e-02 1.82239398e-01 1.04464173e-01
      4.60525788e-02 2.37814169e-02 9.50168371e-02 2.74591058e-01
      2.74591058e-01 2.74591058e-01 2.74591058e-01 2.10246846e-01
      1.93067282e-01 2.11641386e-01 7.46349767e-02 1.35281920e-01
      2.74591058e-01 2.74591058e-01 2.74591058e-01 9.92200971e-02
      1.62352279e-01 1.50541693e-01 1.39292076e-01 7.93539807e-02
      1.71442837e-01 6.68680444e-02 7.75952563e-02 3.49965915e-02
      6.97397068e-02 2.41965652e-01 1.93442956e-01 1.64603010e-01
      1.52256683e-01 2.41965652e-01 1.50355250e-01 1.22338250e-01
      1.26012275e-02 1.49669752e-01 2.31853366e-01 1.72936946e-01
      2.41965652e-01 1.59309298e-01 9.58363563e-02 2.41965652e-01
      1.07281223e-01 1.71299458e-01 9.48708802e-02 2.41965652e-01
      2.41965652e-01 2.41965652e-01 1.57266289e-01 1.18387043e-01
      2.41965652e-01 1.59622699e-01 1.11129627e-01 1.26576006e-01
      2.57029623e-01 1.57355115e-01 1.35850713e-01 2.09869161e-01
      2.57086217e-01 1.46151006e-01 1.43413171e-01 2.04052441e-02
      1.25618309e-01 1.64591640e-01 1.13726400e-01 1.19565941e-01
      1.14373505e-01 1.30312249e-01 8.51454362e-02 9.21807811e-02
      3.44519950e-02 6.54155239e-02 2.57086217e-01 2.57086217e-01
      1.08433731e-01 1.51624888e-01 9.60597768e-02 2.57086217e-01
      2.57086217e-01 1.72572136e-01 1.22028098e-01 2.57086217e-01
      2.55383790e-01 1.08677067e-01 1.11244760e-01 7.24073723e-02
      1.14424519e-01 1.77846849e-01 1.82672128e-01 1.49789780e-01
      1.84605047e-01 1.19101323e-01 1.23577885e-01 4.50315922e-02
      3.71042080e-02 2.15113834e-01 2.28689462e-01 1.90186083e-01
      1.48301199e-01 2.43649960e-01 1.33287027e-01 2.48815730e-01
      1.77538380e-01 1.42991081e-01 2.48815730e-01 1.97692886e-01
      2.48815730e-01 5.94999716e-02 1.18624434e-01 7.68561512e-02
      1.56218559e-01 1.28949240e-01 7.22975582e-02 3.77728455e-02
      6.31590709e-02 7.83719867e-02 1.40909612e-01 1.78768322e-01
      2.48815730e-01 2.48815730e-01 2.48815730e-01 2.48815730e-01
      2.88076606e-02 9.94193256e-02 7.99047947e-02 1.48470446e-01
      1.43045664e-01 1.03321902e-01 2.17690349e-01 1.77628472e-01
      1.29669726e-01 1.95786655e-01 1.32707939e-01 1.87171653e-01
      3.97814661e-02 1.89757898e-01 1.63225070e-01 1.05214804e-01
      1.04416497e-01 1.14781588e-01 2.31533557e-01 2.31533557e-01
      2.31533557e-01 1.08526878e-01 1.18595138e-01 1.83553472e-01
      2.31533557e-01 2.31533557e-01 2.31533557e-01 2.29040701e-02
      7.84246176e-02 1.36645630e-01 8.98757353e-02 7.76775703e-02
      1.70317873e-01 1.64557397e-01 1.47089332e-01 1.67273834e-01
      1.60714433e-01 2.31533557e-01 2.31533557e-01 1.45078167e-01
      1.74991354e-01 8.35232809e-02 4.53939587e-02 5.22305481e-02
      3.48077901e-02 2.43889764e-01 2.43889764e-01 2.05635741e-01
      9.84693989e-02 1.75203711e-01 1.09518401e-01 7.90311396e-02
      2.92757805e-02 4.87410873e-02 1.53727472e-01 2.03992575e-01
      2.08968759e-01 1.42132223e-01 9.04376954e-02 1.20910287e-01
      1.65739521e-01 9.90106985e-02 4.79102321e-02 2.43889764e-01
      2.43889764e-01 2.43889764e-01 1.73273489e-01 1.95674643e-01
      1.15365691e-01 1.30818546e-01 7.41169825e-02 1.36979297e-01
      2.43889764e-01 2.43889764e-01 2.43889764e-01 2.43889764e-01
      8.21900815e-02 9.33451727e-02 1.22864358e-01 1.28541514e-01
      9.79501680e-02 6.24783784e-02 8.46337378e-02 4.44139540e-02
      1.15162753e-01 1.22917682e-01 2.90101856e-01 2.90101856e-01
      2.84562618e-01 2.16377482e-01 1.83653310e-02 5.06506823e-02
      2.17527039e-02 1.18407935e-01 1.81558758e-01 1.32303253e-01
      7.82391503e-02 1.88598111e-01 2.51072288e-01 1.08688369e-01
      7.67834708e-02 2.96072531e-02 9.95179713e-02 2.90101856e-01
      2.90101856e-01 2.47934327e-01 2.90101856e-01 2.61421770e-01
      6.20689504e-02 9.22576189e-02 4.48684879e-02 7.17475340e-02
      8.87133405e-02 2.64124066e-01 2.64124066e-01 2.64124066e-01
      2.64124066e-01 1.37808621e-02 1.95927285e-02 5.27021289e-02
      9.61058065e-02 6.43068627e-02 1.74986094e-01 2.64124066e-01
      2.64124066e-01 1.52350932e-01 3.56702544e-02 5.04358038e-02
      1.58517867e-01 8.24727938e-02 1.59383893e-01 2.64124066e-01
      2.00462610e-01 2.64124066e-01 2.17791215e-01 9.34075117e-02
      7.67759010e-02 9.71749499e-02 6.55116662e-02 1.02224715e-01
      8.75048637e-02 1.27113268e-01 2.10745111e-01 2.64124066e-01
      1.25452921e-01 6.62700608e-02 8.87217000e-02 8.53296295e-02
      1.20856129e-01 1.86319619e-01 2.39864752e-01 1.91497579e-01
      3.66492681e-02 8.89395028e-02 6.56316504e-02 1.07149765e-01
      1.17540769e-01 2.39864752e-01 2.39864752e-01 2.34248847e-01
      1.15647852e-01 1.77890360e-01 1.37146339e-01 1.63841784e-01
      1.57422438e-01 2.39864752e-01 1.96711019e-01 1.25079900e-01
      1.27063900e-01 1.63545981e-01 1.62254155e-01 1.63401008e-01
      3.40695903e-02 6.61656410e-02 1.73371777e-01 2.39864752e-01
      1.58182666e-01 1.75644591e-01 1.18977569e-01 2.39864752e-01
      2.12913379e-01 1.08722724e-01 7.73903057e-02 1.95420131e-01</_>
    <_>
      9.09054354e-02 6.31495193e-02 1.10859558e-01 1.19840749e-01
      1.26620874e-01 1.80094615e-01 9.75420177e-02 1.07923582e-01
      8.25228915e-02 1.10190220e-01 1.44324347e-01 1.64030656e-01
      2.46148586e-01 2.46148586e-01 8.53353217e-02 8.48147795e-02
      1.12659328e-01 1.12910591e-01 1.61398679e-01 1.38810754e-01
      1.13011926e-01 2.13288113e-01 1.15460120e-01 2.46148586e-01
      2.46148586e-01 1.57234117e-01 1.94152668e-01 1.81034967e-01
      1.67484224e-01 1.36468440e-01 2.46148586e-01 2.46148586e-01
      2.41227940e-01 2.35971898e-01 1.29550681e-01 1.71561569e-01
      1.35101259e-01 5.79647496e-02 2.93086208e-02 7.78403133e-02
      1.97793439e-01 8.72402266e-02 3.35181281e-02 9.19183437e-03
      1.68206468e-01 2.71069020e-01 2.71069020e-01 9.11560357e-02
      2.69264191e-01 2.71069020e-01 1.04734339e-01 6.50788918e-02
      1.52109433e-02 2.71069020e-01 8.03537145e-02 9.86416936e-02
      9.95615125e-02 1.40673891e-01 1.39577985e-01 8.01114738e-02
      4.11976762e-02 5.67056723e-02 7.85398632e-02 2.71069020e-01
      2.71069020e-01 2.66269773e-01 2.71069020e-01 2.25501865e-01
      1.12477832e-01 7.27636814e-02 1.67280033e-01 1.77144080e-01
      2.48769283e-01 2.15613380e-01 5.30663617e-02 2.60727644e-01
      2.60727644e-01 2.16725878e-02 8.92743394e-02 2.44023297e-02
      2.20384985e-01 1.53988764e-01 8.07829276e-02 1.54838279e-01
      1.73391074e-01 2.00428784e-01 4.20263149e-02 5.03658094e-02
      1.76511295e-02 1.00089438e-01 2.35757589e-01 2.60727644e-01
      1.36343256e-01 2.60727644e-01 2.42071837e-01 8.01919103e-02
      6.74784034e-02 9.05232802e-02 9.80366990e-02 1.50590137e-01
      2.60727644e-01 1.58006757e-01 2.60727644e-01 2.60727644e-01
      2.47504711e-02 4.14051861e-02 7.56934099e-03 4.55719009e-02
      7.31524304e-02 9.09685940e-02 3.79801542e-02 8.09692219e-02
      3.26242261e-02 1.57462373e-01 2.69621462e-01 1.33322433e-01
      1.63892046e-01 1.72823891e-01 5.87938391e-02 3.30140479e-02
      1.00815892e-01 1.30728379e-01 1.89883336e-01 2.30975255e-01
      1.14850283e-01 1.11499928e-01 1.59709454e-01 1.46334022e-01
      3.26674879e-02 3.66741009e-02 3.16129886e-02 2.36436278e-01
      2.69621462e-01 1.82899937e-01 2.69621462e-01 2.56012529e-01
      9.08532590e-02 3.89952958e-02 7.37100393e-02 9.95798036e-02
      2.69621462e-01 2.69621462e-01 2.69621462e-01 2.48921439e-01
      9.39538628e-02 1.38248682e-01 9.10153463e-02 9.68448296e-02
      9.91740301e-02 9.50617194e-02 1.11241594e-01 7.05340207e-02
      5.54049574e-02 9.88140926e-02 2.49725327e-01 1.75269544e-01
      2.26665393e-01 1.92296565e-01 1.36800379e-01 1.21533379e-01
      2.40525827e-01 6.82500675e-02 1.82245299e-01 2.19738260e-01
      1.00732185e-01 1.42567411e-01 5.72876669e-02 1.84968904e-01
      2.49725327e-01 2.47557849e-01 9.00103822e-02 1.46274015e-01
      2.49725327e-01 1.22622520e-01 1.81330517e-01 1.02414191e-01
      2.20204875e-01 2.49725327e-01 2.49725327e-01 1.69756100e-01
      1.01792924e-01 2.49830246e-01 9.02518034e-02 2.49830246e-01
      2.49830246e-01 1.27015784e-01 1.01480812e-01 2.01410502e-01
      4.55492064e-02 6.47765249e-02 1.44277126e-01 4.79639024e-02
      2.16743767e-01 2.12193698e-01 3.63038480e-02 5.78464158e-02
      3.67726497e-02 3.61586325e-02 1.85591906e-01 1.04872189e-01
      3.57092991e-02 1.89404681e-01 1.79088667e-01 2.35053733e-01
      2.49830246e-01 2.49830246e-01 2.05249339e-01 1.27886966e-01
      1.13866128e-01 1.06753251e-02 1.23849832e-01 1.38737544e-01
      1.07384346e-01 2.49830246e-01 2.49830246e-01 2.42451027e-01
      1.97909832e-01 6.57732040e-02 2.85986550e-02 1.14826314e-01
      6.28014952e-02 8.02785829e-02 2.04507202e-01 1.37142256e-01
      2.58597851e-01 2.58597851e-01 1.06703937e-01 1.58158541e-01
      1.50821269e-01 1.98446482e-01 1.70996726e-01 2.58597851e-01
      2.58597851e-01 2.33759031e-01 6.02034815e-02 4.72209416e-02
      1.19922422e-01 2.11750492e-01 9.01968628e-02 2.80048922e-02
      7.11342841e-02 4.79183644e-02 5.22917509e-02 2.40923271e-01
      1.94921687e-01 2.58597851e-01 2.58597851e-01 2.58597851e-01
      1.08784445e-01 1.38109028e-01 6.66733980e-02 5.38610704e-02
      1.47308812e-01 1.70285255e-01 1.96246043e-01 1.75512835e-01
      6.04075231e-02 9.09302384e-02 2.32088253e-01 1.92111284e-01
      9.26291943e-02 1.33051112e-01 1.77504778e-01 1.27454981e-01
      1.93791464e-01 7.77133182e-02 2.06131592e-01 2.32088253e-01
      2.32088253e-01 2.32088253e-01 1.69625878e-01 2.32088253e-01
      2.32088253e-01 2.07376301e-01 1.57175973e-01 5.79181723e-02
      8.47105086e-02 2.65096277e-02 3.21287438e-02 7.11014494e-02
      2.32088253e-01 2.28996903e-01 1.88521430e-01 1.35114729e-01
      6.90696687e-02 1.24912493e-01 1.77889287e-01 1.40035450e-01
      1.11777410e-01 7.69388005e-02 2.66065560e-02 4.89539132e-02
      1.22202501e-01 2.04666510e-01 2.69914508e-01 2.57075936e-01
      1.81771114e-01 1.28199026e-01 1.60631612e-01 1.73649471e-02
      5.63429222e-02 9.38681513e-02 1.13388494e-01 2.69914508e-01
      2.69914508e-01 1.98055238e-01 5.12862951e-02 1.31663963e-01
      1.65747494e-01 8.11495855e-02 1.01704955e-01 8.50378945e-02
      2.15517834e-01 1.65522009e-01 1.15381770e-01 1.96504623e-01
      1.91972256e-01 1.17620945e-01 1.11931153e-01 1.03624299e-01
      9.66367275e-02 2.69914508e-01 2.69914508e-01 2.61328876e-01</_>
    <_>
      1.52186081e-01 6.73794821e-02 4.16655503e-02 1.04288742e-01
      9.74479988e-02 1.08482867e-01 2.07206056e-01 1.42046273e-01
      1.54222488e-01 1.42879784e-01 5.42193316e-02 1.00574426e-01
      9.28111747e-02 1.41401127e-01 4.91708666e-02 1.02703422e-01
      1.16739832e-01 1.05783686e-01 2.88391203e-01 1.00773074e-01
      4.29750904e-02 9.12050158e-02 2.82722358e-02 2.88391203e-01
      2.88391203e-01 1.86685994e-01 2.08005577e-01 2.76583403e-01
      9.22953859e-02 1.89222127e-01 1.25017479e-01 9.03811902e-02
      2.88391203e-01 2.88391203e-01 2.62585104e-01 1.41869113e-01
      1.51806623e-01 1.71291232e-01 1.52558148e-01 1.21352330e-01
      1.48885429e-01 7.26928264e-02 5.04306518e-02 5.41765988e-02
      7.12252408e-02 2.34854102e-01 2.39372358e-01 1.72045395e-01
      1.44760326e-01 2.39372358e-01 1.44244045e-01 7.95663297e-02
      9.45343748e-02 1.14371993e-01 1.83686569e-01 1.21800475e-01
      2.39372358e-01 1.13570414e-01 8.89667049e-02 2.39372358e-01
      1.48857966e-01 1.48967192e-01 1.99999899e-01 2.39372358e-01
      2.01007351e-01 2.39372358e-01 1.16677150e-01 8.56662393e-02
      2.39372358e-01 1.87022582e-01 1.16091453e-01 2.22953945e-01
      1.47121802e-01 2.45270759e-01 1.46769494e-01 1.23315156e-01
      2.45270759e-01 8.12810287e-02 7.99855590e-02 1.45900473e-01
      6.73562437e-02 8.82194862e-02 1.97861686e-01 1.13662332e-01
      1.40424356e-01 1.35012165e-01 3.28275040e-02 6.09150454e-02
      7.81711787e-02 8.99320394e-02 2.45270759e-01 2.45270759e-01
      1.59721270e-01 1.27711326e-01 8.85001123e-02 2.45270759e-01
      2.45270759e-01 2.08627909e-01 1.88601613e-01 2.45270759e-01
      2.43056729e-01 1.52009919e-01 1.21585704e-01 7.71271437e-02
      9.14902836e-02 2.28434741e-01 1.00315124e-01 2.45270759e-01
      2.55747467e-01 1.27819270e-01 1.11421540e-01 8.10275376e-02
      3.67096625e-02 1.87118560e-01 2.55747467e-01 6.65076151e-02
      1.20684251e-01 2.33262286e-01 1.80386305e-01 2.27980256e-01
      9.92255956e-02 1.41794026e-01 2.55747467e-01 2.55747467e-01
      2.10005298e-01 5.71105480e-02 8.85793045e-02 6.57109916e-02
      1.41180530e-01 1.26980901e-01 7.45602995e-02 5.47729805e-02
      5.25104329e-02 8.70085433e-02 1.55648023e-01 1.48278609e-01
      2.55747467e-01 2.55747467e-01 2.55747467e-01 2.55747467e-01
      6.22344203e-02 7.94630200e-02 1.18557177e-01 1.72391772e-01
      1.11898541e-01 1.04788847e-01 2.33415872e-01 1.21770903e-01
      8.40796307e-02 2.24217936e-01 2.09797338e-01 1.29682764e-01
      8.06982219e-02 2.41145849e-01 6.99984655e-02 1.34491235e-01
      1.13034844e-01 7.38522932e-02 2.41145849e-01 2.41145849e-01
      1.72935367e-01 1.61360204e-01 1.09132111e-01 2.18345270e-01
      2.32785389e-01 2.41145849e-01 2.01644540e-01 5.45861162e-02
      1.09394856e-01 8.94692913e-02 1.02596417e-01 1.81425959e-01
      9.67979208e-02 1.07193567e-01 2.41145849e-01 1.13052100e-01
      1.82301879e-01 2.41145849e-01 1.67808384e-01 1.34747729e-01
      1.78486928e-01 5.10480851e-02 4.85682338e-02 6.91362843e-02
      3.26430835e-02 2.48356268e-01 2.49807358e-01 1.60721898e-01
      1.45202890e-01 1.64944872e-01 9.13424268e-02 9.46344733e-02
      3.42875123e-02 2.88087390e-02 2.07024798e-01 1.81397051e-01
      1.69335932e-01 2.20580518e-01 1.75170124e-01 1.20080374e-01
      8.71803761e-02 1.21549837e-01 6.13453835e-02 2.49807358e-01
      2.49807358e-01 1.51490465e-01 1.54177994e-01 2.07155958e-01
      1.36925325e-01 1.04574047e-01 9.08658877e-02 1.04836956e-01
      2.49807358e-01 2.49807358e-01 2.49807358e-01 2.49807358e-01
      6.11201152e-02 8.16026926e-02 1.44493774e-01 9.52545479e-02
      9.57490876e-02 3.97062637e-02 2.90410556e-02 1.09542988e-01
      1.13829918e-01 1.25721276e-01 3.01093519e-01 3.01093519e-01
      3.01093519e-01 1.73589393e-01 1.65871195e-02 9.73106176e-03
      6.48914352e-02 1.30196750e-01 1.11336574e-01 1.67178109e-01
      1.30479410e-01 2.29867905e-01 2.07783222e-01 1.78228002e-02
      1.64424274e-02 1.25540882e-01 9.31755230e-02 3.01093519e-01
      3.01093519e-01 3.01093519e-01 3.01093519e-01 1.86906710e-01
      1.79276802e-02 3.22617665e-02 2.61196978e-02 5.13489060e-02
      1.23052113e-01 2.81616360e-01 2.81616360e-01 2.81616360e-01
      1.60346478e-01 2.18579918e-02 1.51686408e-02 4.98151146e-02
      1.05463907e-01 1.72018886e-01 1.64183453e-01 1.38108581e-01
      2.81616360e-01 1.85166284e-01 9.12120268e-02 6.05684593e-02
      4.80670631e-02 7.78826326e-02 2.34296694e-01 2.81616360e-01
      2.11528048e-01 2.81616360e-01 1.86246797e-01 8.30041543e-02
      8.58059153e-02 2.02009943e-03 2.17076167e-02 1.04128897e-01
      7.86110908e-02 5.09915240e-02 2.30134249e-01 2.81616360e-01
      1.20483905e-01 6.62312508e-02 3.36555354e-02 1.22149050e-01
      1.51817694e-01 2.26531893e-01 1.64158806e-01 1.50310948e-01
      1.10484675e-01 1.64738029e-01 6.41960502e-02 4.05532755e-02
      1.09395109e-01 1.88890636e-01 2.39873439e-01 1.97001651e-01
      1.37345627e-01 1.77491516e-01 2.06975028e-01 1.01852663e-01
      2.32607111e-01 2.39873439e-01 1.36023059e-01 1.04948513e-01
      1.35708675e-01 1.23338483e-01 2.39873439e-01 1.24396764e-01
      2.30344795e-02 5.36766015e-02 2.30792776e-01 1.51296914e-01
      1.95884570e-01 2.39873439e-01 1.82182863e-01 2.06908017e-01
      1.11546896e-01 7.10676759e-02 8.18060860e-02 2.39873439e-01</_>
    <_>
      3.02453749e-02 3.97792272e-02 5.81558496e-02 1.55333355e-01
      2.07505584e-01 2.23465592e-01 1.47190571e-01 4.47874106e-02
      7.79197887e-02 7.95501396e-02 2.00957090e-01 2.33951792e-01
      2.22239509e-01 2.42205501e-01 8.57571959e-02 7.73003027e-02
      2.09508780e-02 4.60393764e-02 8.94785076e-02 1.03911527e-01
      2.42205501e-01 2.40746960e-01 2.42205501e-01 1.60388649e-01
      1.27436206e-01 1.85664728e-01 1.67514265e-01 1.38972014e-01
      2.06757367e-01 2.34021917e-01 2.42205501e-01 2.42205501e-01
      2.10179687e-01 4.73431759e-02 9.82548669e-02 1.75023854e-01
      9.71098542e-02 9.01098698e-02 9.38970670e-02 4.76901084e-02
      1.64958507e-01 1.22992709e-01 1.27203651e-02 2.43591238e-03
      1.72409236e-01 2.70937592e-01 2.27527380e-01 1.22900374e-01
      2.15631902e-01 2.70937592e-01 1.83049351e-01 1.18437828e-02
      3.29494588e-02 2.70937592e-01 1.07614093e-01 1.33765429e-01
      8.97379145e-02 1.35202020e-01 1.28905520e-01 9.74903405e-02
      1.12987868e-02 5.16699404e-02 8.50335732e-02 2.70937592e-01
      2.70937592e-01 2.63562858e-01 2.70937592e-01 2.58051336e-01
      1.91655576e-01 1.01706535e-02 1.67887375e-01 1.21822439e-01
      2.59714723e-01 2.25195751e-01 1.09456360e-01 2.59714723e-01
      1.96600482e-01 6.42443970e-02 2.80694868e-02 6.91571757e-02
      1.80772498e-01 1.46067008e-01 1.70570567e-01 1.29965350e-01
      2.29595855e-01 6.94424659e-02 3.36798690e-02 3.35081480e-02
      4.98101711e-02 6.35009632e-02 2.59714723e-01 2.59714723e-01
      1.88901931e-01 2.59714723e-01 2.59714723e-01 1.27108231e-01
      2.49483828e-02 9.72081721e-02 7.17738494e-02 2.13580668e-01
      2.20849395e-01 1.50479943e-01 2.59714723e-01 2.42476106e-01
      2.88583878e-02 3.73549275e-02 1.30165769e-02 5.09957224e-02
      5.60997128e-02 1.06907152e-01 1.09868415e-01 6.55503646e-02
      8.18261728e-02 1.16972521e-01 2.65852392e-01 1.77569553e-01
      1.36467904e-01 6.23479150e-02 7.36886933e-02 6.27378449e-02
      8.27434734e-02 1.17683709e-01 1.95640519e-01 1.83011129e-01
      1.64380640e-01 1.62569702e-01 1.02759220e-01 2.65852392e-01
      9.22737569e-02 2.59719528e-02 8.38557780e-02 2.58401573e-01
      2.65852392e-01 2.21365511e-01 2.39111111e-01 9.93275046e-02
      1.23427920e-01 8.56001452e-02 3.19416001e-02 9.37025845e-02
      2.65852392e-01 2.65852392e-01 2.65852392e-01 2.65852392e-01
      6.65312260e-02 1.44645855e-01 4.79176790e-02 9.89812165e-02
      8.98344517e-02 1.18961945e-01 1.07697085e-01 7.37391487e-02
      1.16303287e-01 1.33157328e-01 2.49832422e-01 1.43756777e-01
      2.49832422e-01 1.89816847e-01 2.12781340e-01 5.92453443e-02
      2.49832422e-01 6.06974177e-02 1.43583983e-01 1.67098865e-01
      1.03623673e-01 7.75034800e-02 7.76590705e-02 2.10206017e-01
      2.49832422e-01 2.30295196e-01 1.40492007e-01 1.57995299e-01
      2.49832422e-01 1.31409511e-01 1.31737962e-01 1.48804769e-01
      1.96292609e-01 2.49832422e-01 2.49832422e-01 1.86899260e-01
      1.30282477e-01 2.56017894e-01 1.00235030e-01 2.56017894e-01
      2.56017894e-01 2.03059927e-01 3.67998928e-02 2.08603263e-01
      3.31664458e-02 1.08427525e-01 9.01259184e-02 4.91453484e-02
      1.76779523e-01 2.48359174e-01 7.09726512e-02 4.48017791e-02
      6.23463606e-03 3.61651853e-02 1.58552974e-01 1.08976819e-01
      4.96615469e-02 1.98120013e-01 1.82908788e-01 2.27531791e-01
      2.56017894e-01 2.56017894e-01 1.86006755e-01 1.35448888e-01
      1.35228604e-01 3.32481936e-02 1.57770053e-01 1.34124592e-01
      1.33490205e-01 2.56017894e-01 2.33081192e-01 1.22493409e-01
      1.01099387e-01 2.25984633e-01 1.11195363e-01 8.92795026e-02
      1.02672234e-01 1.09697662e-01 1.23978928e-01 1.39069587e-01
      1.99815124e-01 1.08443551e-01 1.49556458e-01 2.59866089e-01
      7.63828829e-02 1.04562372e-01 2.59866089e-01 2.59866089e-01
      2.59866089e-01 2.59866089e-01 4.24544550e-02 5.76770119e-02
      1.39033020e-01 1.75845414e-01 1.25569463e-01 1.23419873e-02
      2.52257586e-02 5.37038706e-02 7.07369670e-02 1.35841638e-01
      2.59866089e-01 2.59866089e-01 2.59866089e-01 2.08970666e-01
      2.06528157e-01 1.38393506e-01 1.10587902e-01 1.06979080e-01
      1.34678602e-01 1.26713544e-01 2.39628106e-01 1.12713933e-01
      6.29630163e-02 1.34411782e-01 2.39628106e-01 1.89095736e-01
      1.26683280e-01 1.40683979e-01 1.18199326e-01 1.51298285e-01
      1.43148661e-01 1.35794446e-01 1.77690461e-01 2.39628106e-01
      2.39628106e-01 2.39628106e-01 1.44026980e-01 2.39628106e-01
      2.39628106e-01 2.39097953e-01 9.04202834e-02 1.14105254e-01
      1.03019744e-01 3.65463570e-02 4.27017584e-02 1.04646951e-01
      2.09595338e-01 2.39628106e-01 1.80282652e-01 1.06478795e-01
      1.05256319e-01 1.47539720e-01 1.52593449e-01 1.50348261e-01
      1.06119402e-01 6.78792894e-02 2.61804555e-02 5.56414984e-02
      8.73286948e-02 1.86867714e-01 2.68243164e-01 2.68243164e-01
      1.81927964e-01 1.53473660e-01 1.15709268e-01 1.48435803e-02
      8.11530277e-02 6.08744770e-02 2.02014193e-01 2.68243164e-01
      2.68243164e-01 1.34426236e-01 7.52514154e-02 1.26633540e-01
      1.85437590e-01 4.07132283e-02 6.42393231e-02 1.11410327e-01
      1.93727151e-01 2.02665344e-01 1.11574486e-01 2.40449935e-01
      1.13850325e-01 1.28327325e-01 3.88367511e-02 6.34967908e-02
      2.32997775e-01 2.68243164e-01 2.68243164e-01 2.27058232e-01</_>
    <_>
      1.82173967e-01 7.87022561e-02 5.94662242e-02 1.31447300e-01
      5.39162830e-02 6.19404204e-02 2.50283301e-01 1.33778065e-01
      9.40099284e-02 1.20630026e-01 1.51397854e-01 9.97031406e-02
      1.06544644e-01 1.14156611e-01 4.61910963e-02 1.44939438e-01
      1.22856759e-01 3.01141515e-02 2.99464554e-01 1.05622455e-01
      5.76617271e-02 7.44303986e-02 3.39799114e-02 2.81937271e-01
      2.99464554e-01 2.14358941e-01 1.80782065e-01 2.13661790e-01
      1.93790078e-01 1.78902507e-01 1.22715637e-01 1.19998224e-01
      2.99464554e-01 2.99464554e-01 1.96908131e-01 9.10898149e-02
      1.46776468e-01 2.28305504e-01 9.31928307e-02 1.52890459e-01
      1.64526686e-01 5.05120009e-02 4.72506806e-02 7.15422705e-02
      4.48607542e-02 2.32656673e-01 2.32656673e-01 5.71793206e-02
      2.01703966e-01 2.32656673e-01 1.08210005e-01 8.09566900e-02
      9.03770551e-02 9.67688560e-02 1.58127710e-01 2.32656673e-01
      2.32656673e-01 1.34555668e-01 1.03805855e-01 2.32656673e-01
      1.70226052e-01 1.25559717e-01 1.22467220e-01 2.32656673e-01
      2.32656673e-01 2.18786061e-01 1.43251389e-01 1.06867172e-01
      2.32656673e-01 2.17160508e-01 1.18108310e-01 1.77508563e-01
      2.19262689e-01 1.15556069e-01 5.33585399e-02 2.03190461e-01
      2.47160271e-01 9.15616378e-02 1.21250369e-01 1.24672987e-01
      1.41907871e-01 9.78118628e-02 6.69752359e-02 1.06550224e-01
      1.35893792e-01 2.10412711e-01 6.70160651e-02 1.22524165e-01
      1.16497412e-01 1.05800182e-01 2.47160271e-01 1.26390681e-01
      1.23372026e-01 2.02452302e-01 7.26211667e-02 2.20864534e-01
      2.47160271e-01 2.47160271e-01 2.00796515e-01 2.47160271e-01
      1.10938177e-01 1.26742095e-01 1.09242767e-01 6.85392395e-02
      1.05336279e-01 2.47160271e-01 2.47160271e-01 2.24752843e-01
      2.31114969e-01 1.72023743e-01 7.75287002e-02 5.73583432e-02
      4.64485921e-02 1.52925298e-01 2.63773113e-01 1.18458189e-01
      1.31542340e-01 2.22227901e-01 2.07808986e-01 2.03700125e-01
      1.56230390e-01 1.58398956e-01 2.63773113e-01 2.63773113e-01
      1.27567247e-01 4.89563979e-02 1.27202570e-01 1.46829948e-01
      7.71395937e-02 1.00848563e-01 6.61509931e-02 3.04210428e-02
      1.14297941e-01 1.16212904e-01 9.46838036e-02 1.54841796e-01
      2.63773113e-01 2.63773113e-01 2.63773113e-01 2.63773113e-01
      3.53659987e-02 1.24969050e-01 1.35032624e-01 7.16790855e-02
      1.03235409e-01 1.30416974e-01 2.01566353e-01 1.47456855e-01
      8.78338069e-02 1.89958513e-01 2.28277847e-01 1.03299394e-01
      5.54845631e-02 1.72522694e-01 8.33703354e-02 1.29038066e-01
      1.15165092e-01 4.90970351e-02 2.40011930e-01 2.40011930e-01
      1.91951707e-01 1.87981442e-01 9.38104317e-02 2.28900731e-01
      2.26609364e-01 2.40011930e-01 2.21404180e-01 4.06070463e-02
      1.36854395e-01 9.06552523e-02 9.00352523e-02 1.26663342e-01
      5.04302084e-02 1.11295760e-01 2.23008841e-01 1.29078865e-01
      1.79774076e-01 2.40011930e-01 2.01733693e-01 2.40011930e-01
      1.71750560e-01 2.79855281e-02 4.55603413e-02 9.77173373e-02
      1.28825344e-02 2.16580123e-01 2.45609522e-01 1.82033420e-01
      1.35396674e-01 1.88633084e-01 4.27212119e-02 7.46632144e-02
      4.43259254e-02 3.67356576e-02 1.38282061e-01 2.45609522e-01
      1.99759826e-01 1.64638564e-01 1.55345231e-01 4.97081988e-02
      1.14232011e-01 1.57080159e-01 5.31796440e-02 2.29670644e-01
      2.45609522e-01 1.92747191e-01 2.42642269e-01 2.07475811e-01
      6.94981664e-02 1.50793508e-01 1.10644683e-01 9.79521349e-02
      2.33119041e-01 2.45609522e-01 2.45609522e-01 2.45609522e-01
      9.81770605e-02 8.54001790e-02 6.75616115e-02 1.06732294e-01
      8.39212835e-02 7.66528472e-02 9.29765552e-02 1.10196613e-01
      8.89863744e-02 1.10418521e-01 3.00813556e-01 3.00813556e-01
      2.73390681e-01 2.27707550e-01 4.35824841e-02 3.50077823e-02
      1.21954508e-01 4.64566685e-02 1.23814754e-01 1.73954666e-01
      1.37180135e-01 2.17288151e-01 1.00899771e-01 1.39332786e-01
      6.11037165e-02 7.54420608e-02 1.06210776e-01 2.51395524e-01
      3.00813556e-01 3.00813556e-01 3.00813556e-01 2.04103708e-01
      1.09206729e-01 7.07414225e-02 3.73186171e-02 1.61217228e-01
      6.08765446e-02 2.58382142e-01 2.58382142e-01 2.58382142e-01
      2.58382142e-01 4.43048067e-02 4.61918227e-02 7.47395158e-02
      7.47696534e-02 8.79964083e-02 7.98418671e-02 2.01472461e-01
      2.58382142e-01 2.22849384e-01 4.91537862e-02 6.65952042e-02
      9.59530249e-02 2.33743653e-01 1.36058807e-01 2.58382142e-01
      2.58382142e-01 2.58382142e-01 2.01292574e-01 7.61896148e-02
      1.07083857e-01 3.49756889e-02 6.28668442e-02 6.46978840e-02
      8.37034807e-02 2.01685533e-01 2.41823167e-01 2.46108755e-01
      7.42877051e-02 6.38493150e-02 5.77065647e-02 6.29490539e-02
      1.63963407e-01 1.36020705e-01 2.48212367e-01 2.09476694e-01
      1.32608235e-01 6.59361109e-02 5.92213348e-02 8.16392824e-02
      2.06759036e-01 2.48089343e-01 1.94212183e-01 2.48212367e-01
      1.74264640e-01 1.08013459e-01 1.14509799e-01 1.50210261e-01
      1.69844911e-01 2.48212367e-01 2.10264340e-01 1.10542454e-01
      1.76709205e-01 1.42737493e-01 2.04275161e-01 1.20578118e-01
      4.50579077e-02 8.10929239e-02 1.03081778e-01 2.48212367e-01
      1.52574539e-01 2.48212367e-01 1.11861832e-01 2.10390255e-01
      1.21398568e-01 1.36022449e-01 9.47930738e-02 1.17114604e-01</_>
    <_>
      1.80060044e-01 8.77013654e-02 3.09345704e-02 8.68556574e-02
      1.41704857e-01 8.22198465e-02 2.09180787e-01 9.12421271e-02
      1.16071075e-01 8.89164135e-02 1.36425227e-01 1.21994145e-01
      1.32088661e-01 1.21075027e-01 5.53804599e-02 8.97360519e-02
      8.85933787e-02 6.81626871e-02 2.70043820e-01 1.00595675e-01
      3.68318856e-02 7.34479576e-02 5.43255173e-02 2.70043820e-01
      2.70043820e-01 2.70043820e-01 2.28761956e-01 1.74400702e-01
      2.24787861e-01 1.85185924e-01 1.50410593e-01 1.21179543e-01
      2.70043820e-01 2.70043820e-01 2.70043820e-01 1.54934809e-01
      1.56290546e-01 1.85726076e-01 1.39282674e-01 1.44771665e-01
      2.05294967e-01 4.90307510e-02 6.91730827e-02 3.84097509e-02
      5.42301424e-02 2.40573168e-01 1.84785679e-01 1.24708362e-01
      1.27528235e-01 2.40573168e-01 1.05057850e-01 1.59590304e-01
      3.87748964e-02 1.12083629e-01 1.71750277e-01 2.40573168e-01
      2.40573168e-01 1.71575069e-01 1.17322102e-01 2.40573168e-01
      1.39297083e-01 1.26210839e-01 1.21698119e-01 2.40573168e-01
      1.96491435e-01 2.40573168e-01 9.16765556e-02 1.53478473e-01
      2.40573168e-01 2.18680441e-01 9.75311548e-02 1.19503744e-01
      2.39291966e-01 1.79055452e-01 1.36868447e-01 1.50056198e-01
      2.55502641e-01 7.77954161e-02 2.18046993e-01 5.68895116e-02
      7.39934519e-02 1.35317296e-01 1.28589675e-01 1.20486274e-01
      4.88936901e-02 2.15121746e-01 6.30952716e-02 1.03817582e-01
      6.38090521e-02 8.46862197e-02 2.55502641e-01 1.86646342e-01
      1.86811730e-01 8.82325098e-02 1.43528968e-01 2.55502641e-01
      2.55502641e-01 1.97784200e-01 1.14456244e-01 2.55502641e-01
      1.30527616e-01 9.80963260e-02 1.52736738e-01 1.30427703e-01
      7.28200376e-02 2.19875917e-01 2.06442297e-01 2.01293543e-01
      2.44006708e-01 1.25611797e-01 4.39164750e-02 8.63846540e-02
      4.12915759e-02 1.76805735e-01 2.44006708e-01 1.81136638e-01
      1.46202609e-01 2.35256329e-01 1.72806010e-01 1.27609834e-01
      1.81112573e-01 1.79014400e-01 2.44006708e-01 2.44006708e-01
      2.26521209e-01 1.15760289e-01 1.46000594e-01 9.15012807e-02
      9.14941207e-02 1.04228787e-01 5.18509746e-02 5.02896607e-02
      6.90750107e-02 1.11061044e-01 8.56378302e-02 2.30063200e-01
      2.44006708e-01 2.44006708e-01 2.44006708e-01 2.44006708e-01
      9.72734988e-02 1.06512628e-01 1.14031553e-01 1.12048961e-01
      1.26092911e-01 1.37180373e-01 1.78433463e-01 1.42931879e-01
      1.38500676e-01 2.03654468e-01 1.77580327e-01 1.47988990e-01
      5.42833395e-02 2.28811279e-01 1.36945710e-01 1.51465222e-01
      8.54751393e-02 1.16844930e-01 2.31672034e-01 2.31672034e-01
      2.31672034e-01 7.43473843e-02 1.48216993e-01 2.08064094e-01
      1.75818786e-01 2.31672034e-01 2.31672034e-01 5.68254255e-02
      9.92117003e-02 1.11385822e-01 1.03022411e-01 8.63094032e-02
      1.91044524e-01 1.26637965e-01 2.13264421e-01 1.47700056e-01
      1.39205396e-01 2.31672034e-01 2.31672034e-01 1.35997236e-01
      1.81082204e-01 9.02638212e-02 6.31113648e-02 7.31280446e-02
      2.80773994e-02 2.42663145e-01 2.42663145e-01 2.08490849e-01
      5.64540178e-02 2.14846849e-01 8.45531598e-02 2.90636886e-02
      9.14589241e-02 3.16458195e-02 1.62728339e-01 1.82769656e-01
      2.13938490e-01 1.35760397e-01 1.27369061e-01 1.50122464e-01
      1.21723846e-01 1.20656863e-01 3.55804637e-02 2.42663145e-01
      2.29772791e-01 2.42663145e-01 9.57266614e-02 2.42663145e-01
      1.40591621e-01 8.97643045e-02 9.70082134e-02 1.17022574e-01
      2.42663145e-01 2.42663145e-01 2.42663145e-01 2.42663145e-01
      6.02517612e-02 4.87283505e-02 1.76515773e-01 5.02533168e-02
      8.93415734e-02 8.66008848e-02 4.62782271e-02 1.02878235e-01
      9.61897001e-02 2.01737732e-01 2.93765217e-01 2.93765217e-01
      2.36624897e-01 2.26304442e-01 1.18445233e-01 2.17954032e-02
      8.66327733e-02 1.17411286e-01 1.02844998e-01 1.03521101e-01
      1.98332995e-01 1.38699040e-01 1.38771415e-01 1.26137376e-01
      7.24762604e-02 8.91378447e-02 1.35041788e-01 2.93765217e-01
      2.93765217e-01 2.93765217e-01 2.93765217e-01 1.96351513e-01
      1.13176383e-01 1.86184477e-02 6.60758242e-02 1.26037538e-01
      1.57622442e-01 2.60303944e-01 2.60303944e-01 2.60303944e-01
      2.29292214e-01 4.26125601e-02 1.64917801e-02 5.92504740e-02
      1.37325257e-01 7.05738813e-02 1.53011650e-01 2.30854318e-01
      2.60303944e-01 1.92825496e-01 5.16737141e-02 5.98656014e-02
      1.08470522e-01 1.14196122e-01 1.67619035e-01 2.60303944e-01
      2.60303944e-01 2.60303944e-01 2.13102892e-01 4.76542339e-02
      5.40719815e-02 9.18170139e-02 9.13163051e-02 5.31011932e-02
      7.43225589e-02 9.72307101e-02 1.85924426e-01 2.41561770e-01
      1.70989901e-01 1.30560637e-01 1.13456257e-01 7.70713165e-02
      1.44396946e-01 1.87640280e-01 2.38168910e-01 1.01755753e-01
      1.29543722e-01 1.13151036e-01 5.56348264e-02 1.09940909e-01
      6.35902807e-02 2.38168910e-01 2.38168910e-01 2.37873763e-01
      6.29431605e-02 2.29803100e-01 1.27423361e-01 1.35462910e-01
      2.19044223e-01 2.38168910e-01 1.91563964e-01 1.17437765e-01
      1.54407844e-01 7.28020892e-02 1.99619368e-01 2.03491524e-01
      8.15174133e-02 1.11289538e-01 7.30119720e-02 2.38168910e-01
      2.02158600e-01 2.38168910e-01 7.43314624e-02 2.38168910e-01
      1.58391982e-01 1.02647923e-01 9.90638807e-02 1.11005358e-01</_>
    <_>
      2.24396616e-01 6.40103295e-02 1.68982759e-01 1.43594086e-01
      1.84049159e-01 7.62603134e-02 1.72547437e-02 8.26890841e-02
      1.02370277e-01 2.18777120e-01 1.13239273e-01 2.09831178e-01
      1.75650835e-01 1.61322281e-01 2.67190561e-02 4.57149334e-02
      7.01029152e-02 9.42315385e-02 2.39429906e-01 1.62677571e-01
      1.84676617e-01 1.75371975e-01 2.24877894e-01 1.71377882e-01
      2.39429906e-01 1.94981426e-01 1.50420606e-01 2.34560072e-01
      1.51492372e-01 1.84069887e-01 2.39429906e-01 2.39429906e-01
      6.74350858e-02 2.23832890e-01 1.21696524e-01 1.26334801e-01
      1.03297003e-01 7.11424202e-02 1.00841656e-01 1.19687162e-01
      1.33057162e-01 5.43755963e-02 9.58683193e-02 5.85154630e-02
      2.73490604e-02 2.46644378e-01 7.32963383e-02 7.30638802e-02
      1.66536421e-01 2.46644378e-01 1.19971119e-01 2.46644378e-01
      2.46644378e-01 1.63276136e-01 1.96701169e-01 2.46134937e-01
      1.63358927e-01 2.14052856e-01 2.28163093e-01 3.54359336e-02
      1.25698134e-01 4.93509360e-02 7.54871219e-02 2.46644378e-01
      2.46644378e-01 1.71514466e-01 1.86469227e-01 2.46644378e-01
      1.09346241e-01 2.46644378e-01 8.41920525e-02 1.57675669e-01
      2.10742310e-01 6.15813471e-02 9.42848325e-02 1.65206596e-01
      2.52154529e-01 9.41372290e-02 2.52154529e-01 2.30386540e-01
      1.98596910e-01 9.00758579e-02 6.65483847e-02 1.29231259e-01
      1.12887479e-01 2.40194738e-01 1.01959981e-01 4.96642329e-02
      1.20281942e-01 7.39693493e-02 2.52154529e-01 1.88130349e-01
      2.03864366e-01 9.50771347e-02 2.52154529e-01 1.28132954e-01
      2.52154529e-01 9.04035717e-02 2.07131311e-01 1.11780792e-01
      1.44564956e-01 2.52154529e-01 1.18223563e-01 1.93758607e-01
      1.63527980e-01 7.47402608e-02 8.88956189e-02 1.38232663e-01
      2.07341701e-01 8.21127743e-02 2.69560665e-02 4.68783267e-02
      5.98169491e-02 2.15587288e-01 2.61276662e-01 1.74388781e-01
      1.37151346e-01 1.90262198e-01 7.78651685e-02 8.41671452e-02
      8.37900862e-02 1.52302116e-01 2.61276662e-01 2.61276662e-01
      9.71897095e-02 1.10125832e-01 2.09485725e-01 1.55005530e-01
      8.68063644e-02 4.14198749e-02 2.64934469e-02 1.71996161e-01
      2.61276662e-01 1.37444526e-01 1.54848188e-01 2.13765174e-01
      2.33762369e-01 1.42870128e-01 1.32126108e-01 1.25200033e-01
      2.61276662e-01 2.61276662e-01 1.46075279e-01 9.58425403e-02
      1.47858843e-01 1.60517916e-01 1.82907268e-01 1.08994730e-01
      1.66724682e-01 1.39246002e-01 9.26066712e-02 4.37818021e-02
      1.07122838e-01 1.79854855e-01 2.33420849e-01 1.73360467e-01
      9.10781920e-02 1.82585165e-01 1.16774216e-01 9.08111483e-02
      5.91394417e-02 1.21502079e-01 1.17080398e-01 2.37371355e-01
      2.22802252e-01 1.37031853e-01 1.56271487e-01 2.37371355e-01
      2.37371355e-01 9.06366929e-02 8.47673938e-02 1.55883014e-01
      2.01194659e-01 1.94378585e-01 7.47402906e-02 1.72611907e-01
      2.37371355e-01 2.37371355e-01 2.37371355e-01 1.97194755e-01
      1.07215434e-01 1.13958314e-01 9.56974030e-02 4.34344560e-02
      1.42920047e-01 1.12028852e-01 1.22451261e-01 1.13750257e-01
      1.30053788e-01 6.60421774e-02 4.34494950e-02 6.57715276e-02
      4.86965738e-02 8.42940062e-02 1.47286594e-01 9.72892493e-02
      1.31327152e-01 1.52708188e-01 2.31246427e-01 1.37953326e-01
      1.59923822e-01 8.95146504e-02 7.32045770e-02 2.70167798e-01
      2.70167798e-01 2.70167798e-01 2.26389110e-01 2.59039640e-01
      8.85160118e-02 1.61025643e-01 1.23327553e-01 4.95705828e-02
      2.70167798e-01 2.70167798e-01 2.70167798e-01 2.70167798e-01
      1.19447514e-01 1.72603577e-01 1.23480640e-01 7.73541406e-02
      5.65187559e-02 4.92651574e-02 1.13024466e-01 7.93696642e-02
      1.53752655e-01 1.51430994e-01 2.79259145e-01 2.79259145e-01
      2.79259145e-01 1.98773623e-01 1.57108665e-01 1.87580571e-01
      8.28670859e-02 9.92225856e-02 6.94394335e-02 8.57646614e-02
      1.32478982e-01 1.91810980e-01 1.40669629e-01 1.13635257e-01
      6.18990511e-02 1.26349077e-01 1.84726387e-01 8.10860470e-02
      2.79259145e-01 2.79259145e-01 2.79259145e-01 2.79259145e-01
      9.63931903e-02 2.09300462e-02 8.53659958e-02 1.48079738e-01
      8.40287954e-02 2.42562518e-01 1.79878265e-01 2.42562518e-01
      2.19163135e-01 1.19139515e-01 1.88510895e-01 8.84472132e-02
      7.31519982e-02 1.02160096e-01 1.28728583e-01 1.19593464e-01
      1.42988428e-01 1.63569182e-01 2.42562518e-01 2.42562518e-01
      2.42562518e-01 1.97182894e-01 5.63129857e-02 2.42562518e-01
      2.42562518e-01 2.42562518e-01 2.32806474e-01 3.60590778e-02
      9.12845880e-03 5.95178716e-02 9.55773368e-02 7.28948265e-02
      1.51005387e-01 1.15077503e-01 2.33522728e-01 1.76538810e-01
      3.57064791e-02 4.97993119e-02 1.97373107e-01 8.90903026e-02
      1.25423446e-01 7.11046606e-02 1.14068680e-01 9.82541963e-02
      2.24078558e-02 2.45095447e-01 2.45095447e-01 2.45095447e-01
      1.81309879e-01 2.24836007e-01 6.84541911e-02 1.41876295e-01
      7.55792484e-02 6.28711209e-02 2.45095447e-01 2.45095447e-01
      2.45095447e-01 2.45095447e-01 9.12856385e-02 1.85244128e-01
      1.45782292e-01 1.08875468e-01 1.20606154e-01 6.71831220e-02
      5.46231419e-02 1.36342511e-01 1.12141512e-01 1.92697510e-01
      2.33098388e-01 1.64887235e-01 4.77796309e-02 2.04095244e-01
      2.05397546e-01 9.26804319e-02 1.13065876e-01 2.45095447e-01</_>
    <_>
      1.06087200e-01 8.02809969e-02 3.71292569e-02 9.91082489e-02
      8.61815512e-02 1.57763347e-01 1.26746625e-01 1.38005167e-01
      9.36986953e-02 1.00899547e-01 6.12224750e-02 5.58698475e-02
      1.73020080e-01 1.35846600e-01 1.20492771e-01 6.84489012e-02
      1.12743095e-01 1.27317145e-01 2.06607267e-01 1.35543972e-01
      1.09795570e-01 7.37003610e-02 4.36225161e-02 2.88679570e-01
      2.88679570e-01 2.88679570e-01 1.73914507e-01 2.40262195e-01
      7.63357580e-02 3.94630693e-02 1.16008751e-01 8.08589458e-02
      2.88679570e-01 2.88679570e-01 2.88679570e-01 2.87449151e-01
      7.27995634e-02 1.09709449e-01 1.05446704e-01 7.68109336e-02
      1.19222485e-01 7.71275386e-02 4.92015816e-02 6.44110218e-02
      9.21561271e-02 2.00995222e-01 2.61408746e-01 2.03710407e-01
      2.21361265e-01 2.20768288e-01 1.72319978e-01 8.07502493e-02
      1.71343848e-01 1.15482211e-01 1.72810286e-01 1.78627670e-01
      1.13844797e-01 8.88875425e-02 6.18292503e-02 1.69581324e-01
      2.61408746e-01 1.66942492e-01 1.54054508e-01 1.06121823e-01
      2.61408746e-01 1.87555104e-01 1.13130234e-01 1.37756005e-01
      2.61408746e-01 2.61408746e-01 2.61408746e-01 1.19266354e-01
      2.05289572e-01 2.50984609e-01 1.61749095e-01 2.50984609e-01
      2.50984609e-01 1.33191437e-01 5.46511747e-02 1.30406126e-01
      6.62654340e-02 1.10582821e-01 1.39417976e-01 1.86081409e-01
      2.15329975e-01 2.50984609e-01 3.57695371e-02 3.34835309e-03
      1.72912646e-02 3.57973166e-02 1.33371666e-01 2.35463530e-01
      9.89663750e-02 1.48840100e-01 2.50984609e-01 2.50984609e-01
      1.93520501e-01 2.46256560e-01 1.05766132e-01 1.15422376e-01
      1.53383002e-01 7.44552314e-02 9.32730436e-02 2.50984609e-01
      2.08598807e-01 6.43109307e-02 8.09436515e-02 1.04054227e-01
      2.31615275e-01 1.08097479e-01 9.29284543e-02 6.17163777e-02
      5.04890010e-02 2.29824856e-01 2.64586031e-01 2.05148220e-01
      1.79680482e-01 1.86583877e-01 8.38305801e-02 1.12985931e-01
      9.56404060e-02 9.06616449e-02 2.64586031e-01 2.64586031e-01
      2.64586031e-01 2.48515978e-01 9.62844864e-02 1.79260205e-02
      6.10665344e-02 1.35830432e-01 1.04936555e-01 1.48174651e-02
      4.65670899e-02 9.54786018e-02 8.71312693e-02 2.00757951e-01
      1.01492032e-01 2.64586031e-01 2.64586031e-01 1.84241772e-01
      1.47368237e-01 1.65285543e-01 1.84736297e-01 8.04993957e-02
      1.38416588e-01 7.63554871e-02 1.41231149e-01 1.34585172e-01
      4.08429690e-02 1.11869909e-01 2.36044392e-01 1.90875024e-01
      1.25342950e-01 1.33050963e-01 1.24542475e-01 1.06556103e-01
      1.44309655e-01 6.23860769e-02 2.20678553e-01 2.36044392e-01
      2.36044392e-01 2.33905911e-01 2.02087939e-01 1.96634039e-01
      2.36044392e-01 2.08774701e-01 6.79110587e-02 1.26869112e-01
      1.24912426e-01 1.01057924e-01 6.44835532e-02 1.12044208e-01
      2.36044392e-01 1.75511524e-01 1.54565200e-01 6.37043566e-02
      2.23397598e-01 1.54349715e-01 2.36044392e-01 2.06051737e-01
      1.35843992e-01 4.30702791e-02 1.95453260e-02 3.78594138e-02
      1.50070116e-01 2.21238017e-01 2.60503888e-01 2.19380572e-01
      1.79851919e-01 1.46952808e-01 4.96716648e-02 5.66786341e-02
      3.66353318e-02 1.30188957e-01 1.45857781e-01 2.60503888e-01
      1.82328165e-01 1.67556256e-01 1.08364582e-01 1.02153040e-01
      5.93059249e-02 4.66437824e-02 1.33314550e-01 1.42713651e-01
      2.60112107e-01 2.60503888e-01 1.92038536e-01 2.14043453e-01
      1.87274978e-01 7.14857578e-02 3.99511233e-02 1.07062347e-01
      1.53362587e-01 2.60503888e-01 2.60503888e-01 2.50473380e-01
      5.37500195e-02 3.87381800e-02 8.20689946e-02 1.40915811e-01
      1.15180872e-01 1.75871234e-02 1.03289410e-01 8.53166953e-02
      3.90265882e-02 2.16481864e-01 2.40652442e-01 2.94930130e-01
      2.94930130e-01 2.15234995e-01 1.28200129e-01 6.85283989e-02
      1.08255118e-01 1.52919888e-02 5.63814044e-02 6.21500164e-02
      7.88748711e-02 1.37803078e-01 2.94930130e-01 4.43448164e-02
      8.42273906e-02 1.38289884e-01 5.48030883e-02 1.63260520e-01
      2.94930130e-01 2.94930130e-01 2.94930130e-01 2.94930130e-01
      1.34127721e-01 6.16696104e-02 1.34627968e-01 9.96810496e-02
      2.41518930e-01 2.59422272e-01 2.59422272e-01 2.59422272e-01
      1.04837351e-01 1.44915953e-01 5.35585880e-02 4.05348465e-02
      1.77486315e-02 1.07634000e-01 2.59422272e-01 2.59422272e-01
      1.20129094e-01 8.02489445e-02 1.62565887e-01 8.14005286e-02
      1.16443492e-01 7.15099499e-02 1.21568821e-01 2.59422272e-01
      2.59422272e-01 2.59422272e-01 1.17025435e-01 1.68608025e-01
      7.36671910e-02 3.63777801e-02 5.19882478e-02 4.45555896e-02
      2.06003532e-01 2.59422272e-01 2.36591011e-01 1.56557560e-01
      1.18387416e-01 8.21248144e-02 1.05220061e-02 1.55469254e-02
      1.41549930e-01 2.60052651e-01 2.49096900e-01 1.01768002e-01
      1.07748896e-01 7.42986500e-02 1.07528917e-01 1.31400853e-01
      1.27666369e-01 2.60052651e-01 2.60052651e-01 9.82151479e-02
      7.12772906e-02 1.02698892e-01 1.12494558e-01 2.60052651e-01
      2.60052651e-01 2.60052651e-01 7.88044333e-02 1.44387633e-01
      2.60052651e-01 2.04647437e-01 2.12862790e-01 8.21291283e-02
      6.12220466e-02 4.01586620e-03 5.65206446e-02 1.77219555e-01
      1.34055361e-01 2.14567512e-01 1.54464796e-01 1.48970440e-01
      1.08168527e-01 1.60741583e-01 1.02089204e-01 1.18317097e-01</_>
    <_>
      1.75299980e-02 4.46283855e-02 1.15514345e-01 8.49599019e-02
      2.63906211e-01 1.57033294e-01 1.50915265e-01 4.66607213e-02
      3.52534205e-02 1.17683388e-01 1.77337766e-01 2.63906211e-01
      2.07250759e-01 2.63906211e-01 9.96043533e-02 5.40021397e-02
      4.27692570e-02 3.59012708e-02 8.61550495e-02 1.29301295e-01
      2.63906211e-01 1.37386903e-01 2.09129319e-01 2.41400167e-01
      2.60338992e-01 1.63471907e-01 7.66650662e-02 1.55662060e-01
      1.77361965e-01 2.63906211e-01 1.39677063e-01 2.63906211e-01
      1.06908083e-01 2.25743085e-01 1.07686117e-01 8.35217535e-02
      1.03157520e-01 1.08812712e-01 8.62151608e-02 7.21969530e-02
      2.15455920e-01 9.64494869e-02 1.12139026e-03 3.38857691e-03
      1.67543828e-01 2.70756662e-01 2.70756662e-01 1.48269534e-01
      2.21818939e-01 2.70756662e-01 1.28629804e-01 1.76225491e-02
      2.53448151e-02 2.70756662e-01 1.26137927e-01 1.10951103e-01
      1.12435155e-01 1.13938853e-01 1.39668390e-01 7.52433687e-02
      6.24222234e-02 2.90472209e-02 5.56979999e-02 2.70756662e-01
      2.70756662e-01 2.70756662e-01 2.70756662e-01 1.97423443e-01
      1.94150507e-01 1.98378135e-02 1.18374988e-01 1.58958644e-01
      2.26572663e-01 2.45620176e-01 1.32261425e-01 2.45620176e-01
      2.41183743e-01 4.43432070e-02 5.12449704e-02 5.45697249e-02
      2.20117986e-01 1.29092589e-01 1.77993283e-01 8.28959048e-02
      2.45620176e-01 1.04519993e-01 5.82513697e-02 3.57743315e-02
      3.51639837e-02 1.18484326e-01 2.45620176e-01 2.45620176e-01
      2.41693512e-01 2.45620176e-01 2.45620176e-01 1.16894647e-01
      1.47681562e-02 7.74068311e-02 8.49019065e-02 1.87362328e-01
      2.30260238e-01 1.50679201e-01 2.45620176e-01 2.17056096e-01
      3.66882384e-02 1.80079136e-02 1.29138501e-02 2.28718109e-02
      6.25725016e-02 1.22500092e-01 8.81520212e-02 4.61821668e-02
      2.83893123e-02 1.77012905e-01 2.63940901e-01 1.83607936e-01
      8.28647763e-02 1.41568378e-01 7.64994174e-02 7.50280321e-02
      7.32766688e-02 9.85775292e-02 1.66572839e-01 2.63940901e-01
      9.72741842e-02 1.09188169e-01 1.71526551e-01 1.51065230e-01
      6.73358291e-02 2.51232293e-02 1.09120933e-02 2.63940901e-01
      2.63940901e-01 2.41672412e-01 2.63940901e-01 2.07408920e-01
      6.12185262e-02 3.78779955e-02 5.87829649e-02 7.42090046e-02
      2.63940901e-01 2.63940901e-01 2.63940901e-01 2.63940901e-01
      1.00189671e-01 1.36744693e-01 8.92554149e-02 8.60629976e-02
      8.36893395e-02 1.16535328e-01 1.59312949e-01 3.45893428e-02
      6.85621202e-02 1.06047094e-01 2.45794937e-01 2.02628791e-01
      1.91134647e-01 1.56347170e-01 2.45794937e-01 6.38587028e-02
      1.95983768e-01 8.42555463e-02 1.85993299e-01 1.54321283e-01
      1.16674259e-01 1.02795780e-01 7.60415718e-02 2.13455051e-01
      2.45794937e-01 2.38006413e-01 1.13220401e-01 1.51260838e-01
      2.45794937e-01 1.87687263e-01 1.11770988e-01 1.30158365e-01
      2.45794937e-01 2.45794937e-01 2.45794937e-01 1.57661080e-01
      1.24586016e-01 2.48743445e-01 1.62371174e-01 2.48743445e-01
      2.48743445e-01 2.14959130e-01 2.69809254e-02 1.75740287e-01
      4.96844463e-02 1.09053336e-01 9.30778608e-02 1.30903095e-01
      1.54057845e-01 2.33540326e-01 4.93799448e-02 2.19024718e-02
      3.52553488e-03 1.66830402e-02 1.88289776e-01 1.10431403e-01
      1.15016647e-01 1.21030435e-01 1.97768435e-01 2.48743445e-01
      2.48743445e-01 2.48743445e-01 1.80129215e-01 1.25347823e-01
      7.05134943e-02 1.31101429e-01 1.56868547e-01 1.70352519e-01
      1.28089949e-01 2.48743445e-01 1.82367682e-01 1.86553210e-01
      2.18160227e-01 1.01093568e-01 7.89863765e-02 1.30700678e-01
      4.04714607e-02 1.07498728e-01 1.32997304e-01 1.35591298e-01
      2.55899191e-01 1.87294915e-01 1.10790096e-01 2.01814041e-01
      1.41420037e-01 1.54613107e-01 2.52012342e-01 2.55899191e-01
      2.55899191e-01 2.55899191e-01 4.68403101e-02 7.99303725e-02
      9.32958424e-02 2.11994052e-01 1.37898356e-01 2.67792158e-02
      1.98452603e-02 4.95624989e-02 7.35075250e-02 1.68168634e-01
      2.25633830e-01 2.55899191e-01 2.55899191e-01 2.55899191e-01
      1.31775215e-01 4.14682291e-02 1.00296356e-01 1.20835774e-01
      1.58451244e-01 1.30568385e-01 1.94322646e-01 1.52870208e-01
      6.46325946e-02 1.31311029e-01 2.19665632e-01 2.33263612e-01
      1.25611052e-01 1.62376091e-01 9.95179713e-02 1.42941415e-01
      1.80961609e-01 9.30877030e-02 2.33263612e-01 2.33263612e-01
      2.33263612e-01 2.33263612e-01 1.67550489e-01 2.33263612e-01
      2.26497412e-01 2.01914728e-01 1.55219644e-01 8.69114846e-02
      6.34799302e-02 6.86299428e-02 6.78144544e-02 1.11067533e-01
      2.03196794e-01 2.33263612e-01 1.42543733e-01 1.30375147e-01
      1.08142436e-01 1.27277657e-01 1.48630157e-01 1.54526398e-01
      1.40982151e-01 4.73071933e-02 2.52566468e-02 7.34249949e-02
      8.65095928e-02 2.41742924e-01 2.56958693e-01 2.42770180e-01
      1.77253112e-01 1.26816332e-01 1.21417016e-01 2.60340255e-02
      1.33539215e-01 5.57532571e-02 1.90039292e-01 2.56958693e-01
      2.56958693e-01 1.84898719e-01 9.50771049e-02 1.39806464e-01
      1.68345869e-01 6.17352687e-02 9.14368108e-02 1.12954631e-01
      1.81832373e-01 1.43708721e-01 9.49788243e-02 1.31557688e-01
      2.56958693e-01 1.41354904e-01 7.14080408e-02 1.02031417e-01
      2.04370514e-01 2.56958693e-01 2.56958693e-01 2.34390512e-01</_>
    <_>
      3.63944545e-02 8.50752369e-02 1.02460645e-01 7.83148110e-02
      2.41120711e-01 2.50558347e-01 6.93734959e-02 1.32720005e-02
      1.22470651e-02 6.86288849e-02 1.28709838e-01 1.95508569e-01
      1.71579450e-01 2.50558347e-01 2.13357046e-01 1.22841530e-01
      4.35866527e-02 4.97927740e-02 1.61319792e-01 1.14041552e-01
      9.96311903e-02 2.45664880e-01 1.66493252e-01 2.50558347e-01
      2.47326955e-01 1.29882500e-01 1.17110603e-01 1.45838454e-01
      1.72891259e-01 2.50558347e-01 2.50558347e-01 2.50558347e-01
      2.36760378e-01 1.37235552e-01 9.83047262e-02 1.17994033e-01
      9.65290591e-02 6.59208149e-02 6.98037371e-02 4.35516648e-02
      2.12696701e-01 6.37365356e-02 5.39245494e-02 2.28822958e-02
      1.50930241e-01 2.71120787e-01 2.57622719e-01 8.87949914e-02
      2.13486493e-01 2.71120787e-01 1.05386093e-01 7.87088200e-02
      1.87938996e-02 2.71120787e-01 3.51325199e-02 1.43339455e-01
      1.60842523e-01 1.05954289e-01 1.72774225e-01 5.39163947e-02
      4.59916256e-02 3.59341651e-02 7.62010515e-02 2.71120787e-01
      2.71120787e-01 2.71120787e-01 2.71120787e-01 2.71120787e-01
      1.33040220e-01 4.52961139e-02 9.51239467e-02 2.14847386e-01
      2.59770155e-01 1.87119395e-01 7.13865459e-02 2.59770155e-01
      2.32635841e-01 9.01908800e-02 9.54722688e-02 6.01435713e-02
      2.04401076e-01 1.00174949e-01 1.38018832e-01 1.11887522e-01
      1.78398594e-01 1.16646856e-01 6.94161206e-02 6.92243129e-02
      1.32698342e-01 7.71440938e-02 2.59770155e-01 2.59770155e-01
      1.80700019e-01 2.59770155e-01 2.59770155e-01 1.23914458e-01
      4.46162410e-02 8.81405547e-02 1.33334637e-01 1.62288114e-01
      2.24592984e-01 1.27813846e-01 2.59422153e-01 2.59770155e-01
      4.68305238e-02 2.53513586e-02 7.31880367e-02 6.16911054e-02
      1.40131310e-01 4.14166413e-02 2.52821054e-02 8.10201764e-02
      2.65598185e-02 1.09870426e-01 2.76350766e-01 2.16629416e-01
      9.09514353e-02 1.46070302e-01 2.25178692e-02 5.09291589e-02
      8.33345801e-02 1.00537904e-01 1.77992791e-01 2.67477721e-01
      1.75017536e-01 1.17430367e-01 2.24076554e-01 1.22502200e-01
      2.82125715e-02 5.33286408e-02 4.95380489e-03 1.85923278e-01
      2.76350766e-01 2.76350766e-01 1.95904151e-01 1.80922985e-01
      5.22278287e-02 5.50154112e-02 8.95190686e-02 7.21327364e-02
      2.76350766e-01 2.76350766e-01 2.76350766e-01 2.44578287e-01
      6.72042668e-02 1.05372652e-01 1.49147108e-01 8.67196023e-02
      1.21215224e-01 7.66199455e-02 1.41710058e-01 5.59412278e-02
      7.42807388e-02 1.05729967e-01 2.44542748e-01 2.44542748e-01
      2.24968165e-01 2.23012000e-01 1.45151451e-01 1.11135751e-01
      1.78437337e-01 9.10029486e-02 1.09236397e-01 1.82768255e-01
      1.56046778e-01 1.57729894e-01 7.54853934e-02 1.65549815e-01
      2.44542748e-01 2.03025386e-01 1.22102737e-01 1.26737341e-01
      2.44542748e-01 1.82689205e-01 2.05395535e-01 1.29422277e-01
      1.34851456e-01 2.44542748e-01 2.44542748e-01 2.20560536e-01
      1.11535907e-01 2.28331119e-01 1.32289156e-01 2.49715731e-01
      2.49715731e-01 1.61001503e-01 6.61339536e-02 1.68891490e-01
      7.15188682e-02 1.01515546e-01 1.02748938e-01 4.46411781e-02
      1.59695446e-01 2.49715731e-01 6.86626434e-02 3.65293375e-03
      1.12283127e-02 4.33734655e-02 1.69407740e-01 1.00264408e-01
      3.84576470e-02 1.80834725e-01 2.49715731e-01 1.73458084e-01
      2.49715731e-01 2.49715731e-01 2.38916188e-01 1.72050878e-01
      5.69793619e-02 5.74045032e-02 9.33116376e-02 2.22797245e-01
      1.51077658e-01 2.49715731e-01 2.18244344e-01 1.86681449e-01
      1.77075922e-01 1.01976462e-01 7.75798708e-02 1.49772063e-01
      5.37335798e-02 1.11997560e-01 2.23389357e-01 1.47427648e-01
      2.30502129e-01 1.57842442e-01 1.22863658e-01 1.90795690e-01
      2.44492635e-01 2.03409284e-01 1.58052757e-01 2.59484559e-01
      2.59484559e-01 2.38440827e-01 4.25637700e-02 3.18955444e-02
      7.89449364e-02 1.59001052e-01 1.42358810e-01 6.94437101e-02
      1.03923686e-01 1.90963559e-02 5.77957556e-02 1.96950778e-01
      2.09717125e-01 2.59484559e-01 2.59484559e-01 2.59484559e-01
      7.98523724e-02 1.50377840e-01 5.30855767e-02 4.92558144e-02
      1.21121421e-01 1.61166579e-01 1.98056310e-01 2.09296823e-01
      8.85494500e-02 7.06584826e-02 2.31768087e-01 1.78630248e-01
      1.22189663e-01 1.22343093e-01 1.32767454e-01 1.44673601e-01
      2.11629704e-01 1.18597157e-01 1.40978381e-01 2.31768087e-01
      2.31768087e-01 2.31768087e-01 1.98183641e-01 2.31768087e-01
      2.31768087e-01 2.31768087e-01 1.89826533e-01 5.33006713e-02
      9.00440365e-02 3.22576091e-02 3.40001360e-02 1.12708248e-01
      1.83407322e-01 2.28155836e-01 1.56435177e-01 1.18804194e-01
      8.00343975e-02 1.53197914e-01 1.98074535e-01 1.07325584e-01
      1.27999157e-01 2.84642577e-02 2.57617347e-02 8.04640204e-02
      1.45749763e-01 1.54911876e-01 2.70437211e-01 2.70437211e-01
      2.10337058e-01 1.81906044e-01 7.02555031e-02 4.42640446e-02
      5.79689965e-02 1.08028732e-01 1.51121795e-01 2.70437211e-01
      2.70437211e-01 1.95859909e-01 8.57776776e-02 9.25400481e-02
      1.63675368e-01 7.09235221e-02 1.05546713e-01 7.27022588e-02
      2.01273948e-01 2.20261335e-01 9.33953077e-02 2.49457166e-01
      2.21490517e-01 9.11379978e-02 7.58344680e-02 1.20642476e-01
      1.29371569e-01 2.70437211e-01 2.49157727e-01 1.44762442e-01</_>
    <_>
      8.04678723e-02 8.73022676e-02 5.58930859e-02 2.53265470e-01
      1.51123688e-01 1.98375925e-01 1.34984568e-01 7.23343194e-02
      6.26431406e-02 1.30385295e-01 1.61898345e-01 8.11964124e-02
      2.53265470e-01 2.53265470e-01 1.72608435e-01 5.26411720e-02
      9.36860368e-02 9.40403566e-02 1.35504901e-01 1.60511389e-01
      1.46660581e-01 2.53265470e-01 1.48188055e-01 2.12199852e-01
      2.22064242e-01 6.35589585e-02 1.80805698e-01 1.64033145e-01
      2.37313405e-01 1.92887187e-01 2.53265470e-01 2.53265470e-01
      1.86557904e-01 7.62550607e-02 6.27454296e-02 1.48921356e-01
      9.26251486e-02 7.11830929e-02 5.60570657e-02 6.24769777e-02
      1.82792991e-01 9.99027342e-02 3.33513953e-02 2.93686725e-02
      1.79342255e-01 2.71503657e-01 1.38087720e-01 2.28373870e-01
      1.39541999e-01 2.71503657e-01 1.41184196e-01 7.09404796e-02
      4.65283990e-02 2.71503657e-01 6.78345859e-02 1.38851926e-01
      1.45767361e-01 1.20714366e-01 1.28687143e-01 7.94624537e-02
      2.67553870e-02 5.17684594e-02 9.49200019e-02 2.71503657e-01
      2.71503657e-01 2.71503657e-01 2.71503657e-01 2.56216139e-01
      1.59477040e-01 4.11841460e-02 9.85219777e-02 2.60332853e-01
      2.62847781e-01 1.07528538e-01 1.95819706e-01 2.22501069e-01
      2.62847781e-01 9.92749259e-02 8.71433839e-02 8.74667540e-02
      2.08932862e-01 8.15081894e-02 1.24026358e-01 1.63470417e-01
      1.62685573e-01 1.20163217e-01 6.42594323e-02 3.79873067e-02
      1.95798263e-01 5.05342036e-02 2.62847781e-01 2.62847781e-01
      2.23474905e-01 2.62847781e-01 2.62847781e-01 1.11116394e-01
      4.47635576e-02 9.37940925e-02 1.34722412e-01 6.09721616e-02
      1.97476700e-01 2.09270224e-01 2.62847781e-01 1.20033912e-01
      3.39801349e-02 4.74800207e-02 1.17189474e-01 1.29405130e-02
      1.05444506e-01 9.54638198e-02 3.79625596e-02 1.13029093e-01
      6.28224462e-02 1.68999314e-01 2.43420407e-01 1.01550937e-01
      1.57941476e-01 1.94022536e-01 7.52281621e-02 4.43153195e-02
      1.19247667e-01 1.35364190e-01 2.02463195e-01 1.73955604e-01
      1.08973213e-01 1.08844608e-01 2.21386880e-01 1.67206675e-01
      2.31608152e-02 3.84312309e-02 4.89709638e-02 2.62498230e-01
      2.62498230e-01 1.47827804e-01 2.44500637e-01 2.62498230e-01
      9.29345936e-02 5.89749850e-02 4.72557954e-02 1.40920907e-01
      2.62498230e-01 2.62498230e-01 2.62498230e-01 2.29062453e-01
      9.39640254e-02 1.30291969e-01 1.35233372e-01 7.69136250e-02
      8.88837278e-02 7.95251206e-02 1.24630377e-01 6.76589906e-02
      6.51310533e-02 1.05064489e-01 2.41310284e-01 2.35763907e-01
      1.83179826e-01 1.94346666e-01 1.65913612e-01 7.77909011e-02
      1.71108246e-01 1.42167628e-01 1.83315232e-01 1.58690706e-01
      2.05219150e-01 7.24979416e-02 8.10283870e-02 1.77554965e-01
      2.41310284e-01 2.23767713e-01 1.01849265e-01 1.33685887e-01
      2.41310284e-01 2.41310284e-01 9.77891237e-02 1.17776148e-01
      1.85391754e-01 2.41310284e-01 2.41310284e-01 2.41310284e-01
      1.02287881e-01 2.50845969e-01 1.56189561e-01 2.50845969e-01
      2.50845969e-01 1.72930792e-01 4.34591807e-02 1.52173981e-01
      9.51620042e-02 2.95983590e-02 1.11504458e-01 1.25500798e-01
      2.50845969e-01 1.12993464e-01 4.36113849e-02 7.10929111e-02
      6.70619532e-02 9.05282237e-03 1.82008550e-01 1.12895176e-01
      1.21451654e-01 1.44710496e-01 1.38757110e-01 2.50845969e-01
      2.50845969e-01 2.50845969e-01 2.50845969e-01 1.48217246e-01
      5.72211407e-02 1.00946538e-01 8.30733627e-02 1.12364024e-01
      1.35850430e-01 2.50845969e-01 2.50845969e-01 2.04441473e-01
      2.11044982e-01 1.44471422e-01 1.13867097e-01 7.43977204e-02
      4.58921194e-02 1.27148524e-01 2.08846405e-01 7.46198744e-02
      1.57590166e-01 2.44148582e-01 1.50849089e-01 2.48036772e-01
      9.96421948e-02 2.26618558e-01 2.06730708e-01 2.48036772e-01
      2.48036772e-01 2.20985442e-01 5.43605052e-02 1.89026922e-01
      1.55753225e-01 1.12392418e-01 8.95775408e-02 3.64786796e-02
      6.61439598e-02 2.04188544e-02 2.56696511e-02 2.21165568e-01
      2.48036772e-01 2.48036772e-01 2.48036772e-01 2.48036772e-01
      9.60756019e-02 6.99874610e-02 1.74056608e-02 4.13589887e-02
      1.72316775e-01 1.29039124e-01 2.31046274e-01 1.38804495e-01
      8.95743892e-02 1.01465538e-01 2.31046274e-01 1.69938490e-01
      1.29448876e-01 1.54805660e-01 1.21130124e-01 1.66698486e-01
      1.64915726e-01 7.25994930e-02 2.11684406e-01 2.31046274e-01
      2.31046274e-01 2.31046274e-01 1.94919184e-01 2.31046274e-01
      2.31046274e-01 2.31046274e-01 1.59536019e-01 8.09822977e-02
      6.87618628e-02 1.80353858e-02 4.26857397e-02 1.16996437e-01
      2.31046274e-01 1.52127117e-01 1.58219963e-01 1.23940811e-01
      1.07442006e-01 1.26301169e-01 2.08141699e-01 1.38045013e-01
      1.32898584e-01 5.77024221e-02 2.88314261e-02 6.93172067e-02
      7.06951469e-02 2.28532061e-01 2.57122815e-01 2.57122815e-01
      2.22952500e-01 1.56641513e-01 7.92151615e-02 5.23869954e-02
      4.73737679e-02 7.72134066e-02 1.80533126e-01 2.57122815e-01
      2.57122815e-01 2.20546514e-01 1.05567478e-01 1.47069037e-01
      1.17017239e-01 3.15228887e-02 9.35873091e-02 1.00982092e-01
      1.51341155e-01 2.27383509e-01 1.23202972e-01 1.85577199e-01
      2.36768454e-01 7.43944272e-02 2.37703267e-02 1.23859905e-01
      1.56368688e-01 2.57122815e-01 2.46821687e-01 2.38327786e-01</_>
    <_>
      1.58355936e-01 3.42635326e-02 5.19172512e-02 1.25047073e-01
      6.21595234e-02 8.09124336e-02 2.78879434e-01 1.26429662e-01
      1.16796836e-01 1.08228378e-01 6.74817413e-02 1.26005799e-01
      1.43472865e-01 4.91343103e-02 5.08905426e-02 1.67681873e-01
      4.95273806e-02 8.68898109e-02 2.44501233e-01 1.15812898e-01
      2.65856106e-02 8.50986764e-02 2.41565723e-02 2.83738166e-01
      2.83738166e-01 2.83738166e-01 2.45282605e-01 2.56111205e-01
      1.78153500e-01 1.87011600e-01 1.58243328e-01 9.78770927e-02
      2.83738166e-01 2.83738166e-01 1.33988127e-01 9.80504900e-02
      1.09194361e-01 1.67249724e-01 1.47480205e-01 2.22511545e-01
      9.99792069e-02 3.74533832e-02 6.61340058e-02 2.12800615e-02
      9.40419734e-02 2.00919330e-01 2.25767419e-01 1.17161408e-01
      1.59235254e-01 2.30719954e-01 1.05759285e-01 1.48846447e-01
      2.86795869e-02 1.38740823e-01 1.65942997e-01 2.30719954e-01
      2.30719954e-01 2.02724054e-01 1.03851669e-01 2.30719954e-01
      1.61397219e-01 4.16163281e-02 1.76451668e-01 2.30719954e-01
      2.30719954e-01 2.09039390e-01 1.16646476e-01 1.63669303e-01
      2.30719954e-01 2.26442322e-01 6.90259859e-02 1.62923306e-01
      1.32915780e-01 1.82675689e-01 4.84798327e-02 1.05438076e-01
      2.43499205e-01 1.03831448e-01 1.71280712e-01 8.77859592e-02
      1.38054803e-01 1.11071631e-01 1.80723459e-01 4.48460206e-02
      1.85161337e-01 1.99412718e-01 2.25516856e-02 5.85346259e-02
      8.91013220e-02 1.12552591e-01 2.43499205e-01 2.43499205e-01
      8.48874599e-02 1.02746204e-01 1.88864470e-01 1.96354717e-01
      2.43499205e-01 2.39002436e-01 1.62674591e-01 2.43499205e-01
      2.03944162e-01 8.54294598e-02 2.39835754e-01 1.92355305e-01
      4.88487743e-02 1.45012915e-01 1.73333555e-01 2.27315605e-01
      2.02686265e-01 1.84298754e-01 9.43366662e-02 4.80427407e-02
      2.35004947e-02 1.51586980e-01 2.53784627e-01 1.46791384e-01
      1.69398859e-01 2.53303409e-01 2.42575660e-01 1.64950892e-01
      1.46674812e-01 2.13655561e-01 2.53784627e-01 2.53784627e-01
      1.32563129e-01 3.43873501e-02 1.34742498e-01 1.26215741e-01
      1.54263929e-01 8.67889151e-02 6.77531883e-02 3.22019756e-02
      7.72636905e-02 8.23720768e-02 7.93036669e-02 1.96056277e-01
      2.53784627e-01 2.53784627e-01 2.53784627e-01 2.53784627e-01
      7.21454918e-02 8.08845609e-02 7.49742314e-02 6.75426424e-02
      1.18563347e-01 1.75622523e-01 1.78231046e-01 1.49240017e-01
      1.52979374e-01 2.07959190e-01 1.96040764e-01 6.84187561e-02
      6.13183863e-02 2.30657056e-01 1.60317943e-01 1.30773664e-01
      9.13800523e-02 1.24579221e-01 2.30657056e-01 2.30657056e-01
      1.93934262e-01 9.29009095e-02 1.26759484e-01 2.30657056e-01
      2.13810086e-01 2.30657056e-01 2.30657056e-01 4.43783551e-02
      1.02437519e-01 6.13944568e-02 9.18327570e-02 1.65263623e-01
      1.46209538e-01 1.24526106e-01 1.86119735e-01 1.41278580e-01
      1.33114025e-01 2.30657056e-01 2.30657056e-01 1.54053986e-01
      1.83039829e-01 9.93275717e-02 6.12878315e-02 5.84087037e-02
      5.36217913e-02 2.07591981e-01 2.59582639e-01 2.41269261e-01
      7.94900581e-02 1.39326632e-01 9.92942899e-02 7.86713138e-02
      8.31580088e-02 5.77125400e-02 1.03901923e-01 2.30738640e-01
      2.47988582e-01 1.68883950e-01 1.44160315e-01 1.29964605e-01
      1.18723489e-01 1.20941319e-01 3.27741876e-02 1.83012411e-01
      2.59582639e-01 2.59582639e-01 1.32790089e-01 1.91312000e-01
      1.13274880e-01 1.16481692e-01 1.11630075e-01 1.10839672e-01
      1.61139041e-01 2.59582639e-01 2.59582639e-01 2.59582639e-01
      6.36069402e-02 6.40509427e-02 1.33993998e-01 1.28777489e-01
      8.98859128e-02 6.91567883e-02 1.09046623e-01 9.80824158e-02
      6.38402775e-02 1.23119496e-01 2.84681618e-01 2.84681618e-01
      2.84681618e-01 2.46163756e-01 4.05109450e-02 3.83748896e-02
      7.73930475e-02 7.99569264e-02 1.14042655e-01 1.34288162e-01
      1.02833278e-01 2.31368154e-01 1.60633728e-01 1.12595648e-01
      8.80042464e-02 4.72735055e-02 7.47357309e-02 2.84681618e-01
      2.84681618e-01 2.84681618e-01 2.84681618e-01 2.84681618e-01
      5.58998995e-02 4.36699912e-02 5.51181249e-02 1.38414890e-01
      1.28192529e-01 2.63620883e-01 2.63620883e-01 2.63620883e-01
      2.62235761e-01 3.72009687e-02 2.21455861e-02 5.08441590e-02
      1.10181719e-01 1.59135804e-01 1.70238584e-01 1.82090312e-01
      2.27479547e-01 1.79856762e-01 8.78158733e-02 7.56761879e-02
      8.73503760e-02 1.03949182e-01 1.58031344e-01 2.63620883e-01
      2.63620883e-01 2.63620883e-01 2.10954621e-01 8.13446641e-02
      6.47059157e-02 5.88172451e-02 8.37480500e-02 9.84110609e-02
      1.14925340e-01 1.36539981e-01 1.97336152e-01 1.55455843e-01
      2.29993179e-01 1.49417579e-01 4.86843735e-02 4.65670861e-02
      1.50399283e-01 1.74973950e-01 1.92630321e-01 2.03358263e-01
      5.13727963e-02 7.06594214e-02 1.28787518e-01 1.46307126e-01
      1.06401145e-01 2.41062209e-01 2.41062209e-01 1.64774686e-01
      1.52277023e-01 1.60779342e-01 8.84827077e-02 2.37203613e-01
      2.41062209e-01 2.41062209e-01 1.00541674e-01 7.74508640e-02
      1.27866969e-01 1.44092008e-01 1.47852659e-01 1.99231610e-01
      1.89512506e-01 4.06157561e-02 1.83209121e-01 1.27956241e-01
      1.62913188e-01 1.42085612e-01 1.01071417e-01 2.41062209e-01
      1.52593628e-01 1.91952452e-01 8.56754854e-02 2.26756647e-01</_>
    <_>
      1.81287900e-01 3.79137807e-02 1.91075057e-02 5.47976494e-02
      1.37579471e-01 1.44258231e-01 2.13628814e-01 9.16328952e-02
      1.65808320e-01 1.14884488e-01 8.39345083e-02 4.72129807e-02
      7.50837177e-02 1.64946124e-01 8.88104811e-02 1.02645762e-01
      1.20641045e-01 7.86090046e-02 2.73047537e-01 1.12468928e-01
      1.26774656e-02 4.89456430e-02 5.81230968e-02 2.73047537e-01
      2.73047537e-01 2.13773072e-01 2.73047537e-01 2.67494857e-01
      1.84792951e-01 9.63230655e-02 9.42383930e-02 1.42052352e-01
      2.73047537e-01 2.73047537e-01 2.73047537e-01 1.16851553e-01
      1.11148603e-01 2.34262466e-01 1.11905769e-01 1.54331341e-01
      1.90065831e-01 5.50596789e-02 5.57192117e-02 4.26783748e-02
      4.27493490e-02 2.21222967e-01 2.34262466e-01 1.29340366e-01
      2.00321361e-01 2.34262466e-01 6.60784766e-02 1.32320791e-01
      4.06027772e-02 8.19213465e-02 1.70295015e-01 2.34262466e-01
      2.34262466e-01 9.98732150e-02 1.70248047e-01 2.34262466e-01
      1.38952345e-01 1.45826951e-01 9.93534923e-02 2.34262466e-01
      2.34262466e-01 2.34262466e-01 8.09624493e-02 2.08296567e-01
      2.22751334e-01 1.81662127e-01 1.17796578e-01 9.09386054e-02
      1.49990559e-01 2.01323792e-01 1.11759014e-01 1.71469167e-01
      2.43916586e-01 5.88675067e-02 1.56989187e-01 1.07881606e-01
      1.00613423e-01 1.51100650e-01 1.07179411e-01 1.14017121e-01
      1.23665221e-01 1.53925970e-01 1.05951123e-01 4.63429056e-02
      6.03647009e-02 1.06615394e-01 2.43916586e-01 1.86931372e-01
      1.51543498e-01 1.19905561e-01 1.34177923e-01 2.43916586e-01
      2.43916586e-01 2.43916586e-01 1.18813619e-01 1.88578174e-01
      1.70184717e-01 2.29091167e-01 1.27472565e-01 4.73477766e-02
      2.19697163e-01 1.85956299e-01 2.36447945e-01 2.27914497e-01
      2.04002619e-01 1.75791979e-01 8.59417245e-02 6.97578862e-02
      3.32155973e-02 2.10032865e-01 2.50306755e-01 1.41672477e-01
      1.78204507e-01 2.06339434e-01 2.50306755e-01 1.38253018e-01
      1.73313543e-01 1.49509907e-01 2.50306755e-01 2.50306755e-01
      2.24437028e-01 7.75935724e-02 5.82175255e-02 1.14776947e-01
      1.46457449e-01 8.56554732e-02 4.80269007e-02 5.51584512e-02
      9.54828933e-02 1.48427799e-01 1.17176525e-01 1.53092653e-01
      2.50306755e-01 2.50306755e-01 2.50306755e-01 2.26611599e-01
      7.86733851e-02 1.47802651e-01 6.66716024e-02 6.15335219e-02
      9.33110639e-02 1.82389006e-01 1.80787772e-01 1.40250623e-01
      1.23170175e-01 1.99478462e-01 1.82755783e-01 1.55608997e-01
      3.54009904e-02 2.30561405e-01 1.14899643e-01 1.29879937e-01
      8.80622193e-02 1.16396748e-01 2.33281285e-01 2.33281285e-01
      2.33281285e-01 5.28557822e-02 1.36228099e-01 2.33281285e-01
      2.33281285e-01 2.33281285e-01 2.00242355e-01 5.04487678e-02
      1.04837082e-01 9.44826230e-02 5.21543436e-02 2.02128664e-01
      1.06001697e-01 1.20057039e-01 1.80405453e-01 1.41132966e-01
      1.61831155e-01 2.33281285e-01 2.33281285e-01 1.33514971e-01
      1.95228770e-01 4.75723296e-02 5.08234762e-02 5.50429560e-02
      4.58989814e-02 2.41162106e-01 2.46943146e-01 2.46943146e-01
      6.63356408e-02 1.17794313e-01 5.31676970e-02 1.44788936e-01
      3.64613123e-02 3.60138901e-02 1.53573200e-01 2.18510896e-01
      2.46943146e-01 1.43105105e-01 1.77814052e-01 1.04996048e-01
      1.05889283e-01 1.02443464e-01 5.78571968e-02 2.09916189e-01
      2.46943146e-01 2.46943146e-01 1.18939899e-01 1.90871045e-01
      8.34355205e-02 1.09896161e-01 1.09648474e-01 1.11993961e-01
      2.46943146e-01 2.46943146e-01 2.46943146e-01 2.46943146e-01
      4.87618335e-02 6.68400303e-02 1.28850698e-01 7.90219903e-02
      9.36166048e-02 8.41929093e-02 1.33107573e-01 1.11676201e-01
      7.22059235e-02 1.15734220e-01 2.80656427e-01 2.80656427e-01
      2.55495816e-01 2.15954646e-01 6.44043833e-02 1.02652498e-01
      1.58838686e-02 5.96055798e-02 1.58408672e-01 1.22986913e-01
      1.18207559e-01 1.97781384e-01 2.80656427e-01 7.16477260e-02
      9.93430838e-02 4.84178327e-02 7.36703128e-02 2.80656427e-01
      2.80656427e-01 2.80656427e-01 2.80656427e-01 2.80656427e-01
      5.09352945e-02 5.72582744e-02 5.15345298e-03 1.42551273e-01
      1.35041043e-01 2.62287170e-01 2.62287170e-01 2.62287170e-01
      2.28660315e-01 5.91095090e-02 3.85247990e-02 1.89466402e-02
      7.61491582e-02 1.76359698e-01 9.84300375e-02 2.35756397e-01
      2.22004786e-01 2.13067144e-01 8.61090943e-02 4.94275615e-02
      1.01321898e-01 1.17533490e-01 1.34710282e-01 2.62287170e-01
      2.62287170e-01 2.62287170e-01 2.62287170e-01 1.04021348e-01
      6.67277128e-02 1.17520196e-02 8.42724144e-02 6.87629655e-02
      3.80607508e-02 1.11234374e-01 1.04405925e-01 2.62287170e-01
      2.10198775e-01 1.12415761e-01 7.71921277e-02 8.64917040e-02
      1.72420651e-01 1.91049531e-01 2.30453014e-01 1.33568779e-01
      9.94119644e-02 6.53322116e-02 9.86088291e-02 1.15993187e-01
      1.03327103e-01 2.30453014e-01 2.30453014e-01 2.01174036e-01
      1.37566566e-01 1.69279143e-01 1.25858426e-01 1.92099363e-01
      2.30453014e-01 2.30453014e-01 1.55443534e-01 8.30966234e-02
      1.41831279e-01 4.44413647e-02 2.30453014e-01 1.54439032e-01
      1.18227199e-01 6.60522878e-02 1.96502194e-01 1.70178130e-01
      1.42322764e-01 2.29742646e-01 7.10630119e-02 2.08811089e-01
      1.60442516e-01 1.90794736e-01 1.29752114e-01 2.06355304e-01</_>
    <_>
      7.14103803e-02 6.92928061e-02 7.09004253e-02 1.78284839e-01
      2.51638740e-01 7.36662745e-02 1.27318636e-01 1.80760715e-02
      9.37707573e-02 9.46117491e-02 9.53660905e-02 9.98352841e-02
      1.85646012e-01 2.51638740e-01 9.65729505e-02 3.45916077e-02
      3.70914564e-02 1.72996745e-01 2.25266173e-01 1.52713314e-01
      4.99963611e-02 2.51638740e-01 2.34718099e-01 1.15653433e-01
      2.24641398e-01 9.96184424e-02 2.36244023e-01 2.25948051e-01
      2.41926044e-01 1.27469957e-01 2.51638740e-01 2.51638740e-01
      2.20834360e-01 1.61150638e-02 9.55649912e-02 2.32117429e-01
      7.11903572e-02 5.08071408e-02 4.47431095e-02 6.04715012e-02
      2.07866281e-01 7.37697259e-02 1.61392540e-02 1.90410353e-02
      1.86087340e-01 2.61891216e-01 2.61891216e-01 1.32116482e-01
      2.06415400e-01 2.61891216e-01 1.02625430e-01 2.56519262e-02
      7.68097267e-02 2.61891216e-01 6.66370243e-02 1.08909175e-01
      9.19705182e-02 8.95289779e-02 2.48537734e-01 9.90024880e-02
      8.77792947e-03 6.48334399e-02 1.06345013e-01 2.61891216e-01
      2.61891216e-01 2.38459423e-01 2.61891216e-01 2.61891216e-01
      1.91371769e-01 2.74905078e-02 2.11736917e-01 1.23744279e-01
      2.52046615e-01 2.27652550e-01 1.33842766e-01 2.35924646e-01
      2.52046615e-01 8.40038955e-02 2.42210906e-02 1.04775272e-01
      1.87154949e-01 1.36911094e-01 1.06649935e-01 1.14526130e-01
      1.51984334e-01 1.70666784e-01 4.94129471e-02 3.98792289e-02
      9.20016766e-02 9.50059295e-02 2.46601209e-01 2.52046615e-01
      2.52046615e-01 2.52046615e-01 2.52046615e-01 1.29380003e-01
      2.02544536e-02 1.21619157e-01 5.17650321e-02 1.01228297e-01
      2.41649315e-01 2.52046615e-01 2.52046615e-01 1.52633995e-01
      3.26993205e-02 1.32294847e-02 3.14893052e-02 6.01844229e-02
      1.20083496e-01 1.19306162e-01 1.49828633e-02 7.73962289e-02
      5.89484945e-02 1.28484607e-01 2.70163685e-01 1.17310368e-01
      1.51428491e-01 1.85883954e-01 1.26342654e-01 2.94095557e-02
      1.41511172e-01 1.09928615e-01 1.86206236e-01 2.16806233e-01
      9.91497338e-02 1.19660452e-01 2.59302646e-01 1.85014486e-01
      3.76842059e-02 1.64878033e-02 5.95537126e-02 2.20424786e-01
      2.70163685e-01 1.54204369e-01 1.85211465e-01 2.70163685e-01
      1.45405948e-01 4.31848504e-02 9.45882350e-02 8.11950639e-02
      2.70163685e-01 2.70163685e-01 2.70163685e-01 1.63048819e-01
      8.72505382e-02 1.36124998e-01 9.06900615e-02 1.02130853e-01
      1.21022716e-01 1.03790358e-01 1.33743376e-01 7.12701827e-02
      7.77664334e-02 8.09810162e-02 2.47656852e-01 1.77848548e-01
      1.97210923e-01 2.14118332e-01 2.23908350e-01 1.36230558e-01
      2.18612611e-01 6.48382455e-02 1.73985705e-01 1.72267050e-01
      8.95401686e-02 1.83854327e-01 4.67343815e-02 1.57574475e-01
      2.47656852e-01 2.47656852e-01 9.40881446e-02 1.27609879e-01
      2.47656852e-01 1.11268200e-01 2.31415719e-01 9.21147913e-02
      1.83448121e-01 2.47656852e-01 2.47656852e-01 1.57112733e-01
      7.59903118e-02 2.42501855e-01 1.47287697e-01 2.42501855e-01
      2.42501855e-01 2.19379440e-01 9.73459408e-02 1.69072002e-01
      3.95843908e-02 4.65135127e-02 9.46388394e-02 1.61581457e-01
      2.19361290e-01 1.65777758e-01 6.67930990e-02 2.85850652e-02
      4.60150391e-02 7.30817169e-02 1.34059712e-01 9.86819565e-02
      4.43555079e-02 1.94053695e-01 2.12276086e-01 2.42501855e-01
      2.42501855e-01 2.42501855e-01 1.91189602e-01 1.43934801e-01
      6.89109415e-02 6.72091097e-02 1.52820423e-01 2.18440205e-01
      1.73410818e-01 2.42501855e-01 1.39540702e-01 2.13519320e-01
      2.52573758e-01 1.56317294e-01 8.40695947e-02 6.19037338e-02
      1.05396159e-01 1.29857019e-01 1.77359715e-01 7.21426457e-02
      1.26174614e-01 2.05115363e-01 1.95697576e-01 2.03046411e-01
      1.66106537e-01 1.88379318e-01 2.20144123e-01 2.52573758e-01
      2.52573758e-01 2.04930425e-01 4.37050052e-02 9.52883735e-02
      1.24023765e-01 1.53105959e-01 1.65133402e-01 8.90909210e-02
      1.59614496e-02 6.22743070e-02 7.26882592e-02 9.41402614e-02
      2.52573758e-01 2.52573758e-01 2.52573758e-01 2.52573758e-01
      1.34788707e-01 1.04020417e-01 8.80257636e-02 1.40937299e-01
      1.31603345e-01 1.42155439e-01 1.89112917e-01 2.12497219e-01
      7.87797496e-02 1.08683825e-01 1.87864766e-01 2.37989455e-01
      1.14978172e-01 1.70221761e-01 1.14445254e-01 9.84965414e-02
      2.23176003e-01 8.00994784e-02 1.82042062e-01 2.37989455e-01
      2.37989455e-01 2.37989455e-01 1.09551020e-01 2.37989455e-01
      2.37989455e-01 1.77152276e-01 1.74684748e-01 7.66437128e-02
      4.77478094e-02 6.43129274e-02 6.50544912e-02 1.13496743e-01
      2.37989455e-01 1.86042666e-01 1.60658732e-01 1.69848338e-01
      8.29416513e-02 6.01350926e-02 2.03734189e-01 1.74515441e-01
      1.26276478e-01 5.09226769e-02 7.49548711e-03 9.76533517e-02
      1.17687061e-01 1.86439678e-01 2.62342304e-01 2.62342304e-01
      2.08727717e-01 1.44274190e-01 1.11987107e-01 2.25389935e-02
      1.26443148e-01 1.28514737e-01 1.65725291e-01 2.62342304e-01
      2.48606831e-01 1.93524331e-01 9.61700976e-02 1.40411332e-01
      1.19206011e-01 5.93450293e-02 1.33906841e-01 6.29703924e-02
      1.65636346e-01 2.11777642e-01 1.28686979e-01 1.98085502e-01
      1.94956958e-01 1.06873818e-01 4.46609035e-02 1.53529480e-01
      1.31481171e-01 2.62342304e-01 2.62342304e-01 2.25617886e-01</_>
    <_>
      6.81252778e-02 9.77921858e-02 9.74069089e-02 1.62086397e-01
      2.23616019e-01 1.01143934e-01 1.54760391e-01 9.20430198e-02
      4.46163192e-02 8.65688846e-02 1.97976679e-01 2.11342037e-01
      2.39697888e-01 2.39697888e-01 9.60205793e-02 6.22537024e-02
      6.10072352e-02 7.37274066e-02 1.85284480e-01 1.27625525e-01
      8.21663886e-02 2.27250233e-01 1.08329423e-01 2.39697888e-01
      2.35943779e-01 1.47619426e-01 1.74965471e-01 2.07994550e-01
      2.39697888e-01 2.39697888e-01 2.39697888e-01 1.67202353e-01
      2.18909740e-01 1.79654673e-01 9.20469835e-02 7.71009549e-02
      6.52726367e-02 6.20105118e-02 8.86522979e-02 8.37622955e-02
      1.45053118e-01 1.24968171e-01 4.14236188e-02 1.94310341e-02
      1.95762977e-01 2.69861132e-01 2.69861132e-01 1.47373214e-01
      2.07709908e-01 2.69861132e-01 1.49154931e-01 4.79899496e-02
      5.83472662e-02 2.69861132e-01 5.61339781e-02 1.18563883e-01
      1.74672693e-01 1.66461930e-01 9.74564478e-02 9.38149095e-02
      5.93621135e-02 4.50356491e-02 6.17706329e-02 2.52265543e-01
      2.69861132e-01 2.69861132e-01 2.69861132e-01 2.21662015e-01
      1.56048745e-01 5.21052666e-02 1.92825675e-01 1.20585188e-01
      2.30888590e-01 2.60189980e-01 1.51811823e-01 2.27006048e-01
      2.53177673e-01 1.33180007e-01 1.92707051e-02 6.64793253e-02
      2.18021840e-01 1.15928583e-01 1.56138822e-01 1.60734177e-01
      1.38556808e-01 1.10926807e-01 1.22756131e-01 3.98380458e-02
      5.39211147e-02 1.38426647e-01 2.11332574e-01 2.60189980e-01
      2.60189980e-01 2.60189980e-01 2.04822674e-01 1.04160555e-01
      3.67144980e-02 1.34739622e-01 5.12710027e-02 8.33284855e-02
      2.60189980e-01 2.17583105e-01 2.60189980e-01 1.20394066e-01
      3.94360721e-02 2.16566976e-02 3.76950391e-02 5.87835945e-02
      9.13162380e-02 8.63038972e-02 2.45551839e-02 7.65844509e-02
      2.20826007e-02 2.37151608e-01 2.34392405e-01 1.56516448e-01
      1.32402852e-01 1.52788892e-01 8.93053934e-02 4.80201989e-02
      9.73720700e-02 7.26030022e-02 1.93962842e-01 2.69858718e-01
      1.11285217e-01 7.12618455e-02 2.09201798e-01 1.59904361e-01
      4.44757380e-02 2.65056491e-02 1.50829954e-02 2.69858718e-01
      2.69858718e-01 2.30193466e-01 2.08399475e-01 2.21058145e-01
      1.01971455e-01 5.53836226e-02 7.30397329e-02 6.22625574e-02
      2.69858718e-01 2.69858718e-01 2.69858718e-01 2.01844022e-01
      7.65498057e-02 1.26307026e-01 1.38586715e-01 1.13351382e-01
      7.12574795e-02 1.02862887e-01 1.60655767e-01 5.23396097e-02
      3.74847241e-02 6.98158741e-02 2.45127901e-01 2.25079849e-01
      2.45127901e-01 1.51945323e-01 1.86328575e-01 1.33253768e-01
      1.90502390e-01 5.12283295e-02 1.48053020e-01 1.79905847e-01
      1.81616038e-01 1.15674809e-01 3.29576284e-02 1.56435579e-01
      2.45127901e-01 2.11672857e-01 1.06944725e-01 1.18687153e-01
      2.45127901e-01 2.26243764e-01 1.86075971e-01 5.38124740e-02
      2.26274282e-01 2.45127901e-01 2.45127901e-01 1.76309660e-01
      7.82659799e-02 2.52571911e-01 1.28630683e-01 2.52571911e-01
      2.37560287e-01 1.98697239e-01 1.16183437e-01 1.86790988e-01
      2.57483870e-02 5.68355620e-02 1.27535269e-01 5.22184633e-02
      2.11192295e-01 1.66698158e-01 1.07359633e-01 1.57525651e-02
      1.90249458e-02 3.81541885e-02 1.64282069e-01 1.79871112e-01
      8.12322497e-02 1.72398716e-01 1.36161715e-01 2.52571911e-01
      2.52571911e-01 2.52571911e-01 1.87039629e-01 1.37789264e-01
      9.31073353e-02 2.84040924e-02 1.17207676e-01 1.30681038e-01
      2.52571911e-01 2.01390013e-01 2.52571911e-01 1.61441177e-01
      2.56353378e-01 1.50195196e-01 1.02342665e-01 6.95303231e-02
      2.93875132e-02 1.54842570e-01 1.63249478e-01 1.45142183e-01
      1.53370947e-01 1.97402582e-01 1.46896109e-01 2.44110271e-01
      1.65864691e-01 1.37737766e-01 2.41386726e-01 2.58621573e-01
      2.58621573e-01 2.33738974e-01 5.86565323e-02 6.98718578e-02
      1.25884190e-01 1.57858923e-01 9.63127688e-02 6.63139224e-02
      6.08079061e-02 5.69182299e-02 4.86792885e-02 1.55199885e-01
      2.17422917e-01 2.58621573e-01 2.29917660e-01 2.58621573e-01
      1.53084338e-01 5.51176146e-02 1.27661020e-01 1.07841559e-01
      1.39630392e-01 1.12714872e-01 2.16947138e-01 1.75558195e-01
      4.90890630e-02 1.04718134e-01 2.09283382e-01 2.25907251e-01
      1.31315053e-01 1.44185051e-01 1.25563562e-01 1.69524387e-01
      2.17997134e-01 5.50584905e-02 2.25907251e-01 2.25907251e-01
      2.25907251e-01 2.25907251e-01 1.78950876e-01 2.06131607e-01
      2.25907251e-01 2.00354755e-01 1.64121926e-01 1.07830845e-01
      4.38533686e-02 6.61436617e-02 6.91561252e-02 1.43979147e-01
      1.93434030e-01 1.87967852e-01 2.25907251e-01 1.10017434e-01
      1.29557520e-01 5.40271662e-02 1.82818487e-01 1.30918577e-01
      1.36065081e-01 7.75477886e-02 3.69658843e-02 1.05646119e-01
      7.60737807e-02 2.59377927e-01 2.59377927e-01 2.59377927e-01
      1.85173452e-01 1.59805492e-01 1.01585425e-01 2.08836589e-02
      1.14671849e-01 6.08887635e-02 1.90910012e-01 2.59377927e-01
      2.59377927e-01 1.62335441e-01 1.24314480e-01 1.38198629e-01
      1.15002580e-01 9.57399756e-02 8.58990401e-02 1.10177435e-01
      1.47491410e-01 2.07364321e-01 9.21063721e-02 2.40934491e-01
      1.74164549e-01 1.03311457e-01 5.40949926e-02 8.83289799e-02
      1.35039493e-01 2.59377927e-01 2.59377927e-01 2.35941753e-01</_>
    <_>
      9.10259113e-02 4.41259891e-02 7.87229016e-02 1.37682721e-01
      2.15365335e-01 2.40199208e-01 8.50350037e-02 4.31984700e-02
      9.11390558e-02 1.58674359e-01 1.23955645e-01 1.32893637e-01
      1.50436521e-01 2.40199208e-01 2.18910873e-01 4.70419861e-02
      7.26408288e-02 9.91910473e-02 2.40199208e-01 1.12858593e-01
      1.18690401e-01 1.83113888e-01 2.40199208e-01 2.40199208e-01
      1.52929708e-01 9.82382819e-02 2.17322528e-01 2.40199208e-01
      2.40199208e-01 1.88500166e-01 1.06885225e-01 2.40199208e-01
      2.40199208e-01 6.76716790e-02 3.97619605e-02 1.98347449e-01
      1.18981674e-01 6.63937181e-02 7.44166076e-02 4.63639982e-02
      2.02130124e-01 1.03096925e-01 4.45811041e-02 1.22191934e-02
      1.60363913e-01 2.73202002e-01 2.73202002e-01 1.30758986e-01
      2.12563947e-01 2.73202002e-01 1.19827755e-01 6.00720458e-02
      5.58889247e-02 2.73202002e-01 6.63136914e-02 1.63736135e-01
      1.48332745e-01 8.61665308e-02 8.34937766e-02 1.10394828e-01
      5.71142472e-02 2.05101855e-02 6.26158491e-02 2.73202002e-01
      2.73202002e-01 2.73202002e-01 2.73202002e-01 2.11209312e-01
      1.86355546e-01 5.09376191e-02 1.50951058e-01 1.38119802e-01
      2.55083144e-01 2.55083144e-01 1.22956790e-01 2.55083144e-01
      2.55083144e-01 5.57080060e-02 3.32729071e-02 7.42074922e-02
      1.62814721e-01 1.52585119e-01 1.71714559e-01 1.67155638e-01
      1.55941069e-01 1.36141151e-01 5.35416044e-02 2.15268135e-02
      5.64656891e-02 6.67533353e-02 2.55083144e-01 2.55083144e-01
      2.20635235e-01 2.55083144e-01 2.10439548e-01 1.24210976e-01
      3.06316968e-02 9.52085853e-02 4.80524078e-02 1.66999519e-01
      2.40509182e-01 2.39804775e-01 2.55083144e-01 1.37855023e-01
      7.19858706e-02 2.60032080e-02 2.41087116e-02 4.05408703e-02
      9.98133644e-02 1.07001916e-01 4.53314967e-02 5.15175089e-02
      9.66899395e-02 1.67612314e-01 2.59185165e-01 1.50446683e-01
      1.13968596e-01 1.49331018e-01 1.24082133e-01 5.48809841e-02
      3.57811674e-02 1.17257625e-01 2.27506325e-01 2.06722260e-01
      8.55541900e-02 9.07962471e-02 2.20265284e-01 2.08587557e-01
      6.51868805e-02 2.79205907e-02 8.25425386e-02 2.70049006e-01
      2.70049006e-01 1.86793223e-01 2.08622321e-01 2.02016652e-01
      1.27168253e-01 9.99070928e-02 4.07152288e-02 1.10568337e-01
      2.70049006e-01 2.70049006e-01 2.70049006e-01 1.93342164e-01
      7.31704831e-02 1.65213481e-01 1.42181680e-01 4.72430103e-02
      5.83136380e-02 1.20927975e-01 1.66489869e-01 2.44309474e-02
      3.92804779e-02 1.03354804e-01 2.45652363e-01 2.45652363e-01
      1.96578994e-01 1.61576450e-01 2.21618474e-01 1.04931138e-01
      1.89564571e-01 6.61314577e-02 1.46773100e-01 1.60353988e-01
      1.85509771e-01 1.00420512e-01 6.92132935e-02 1.60012096e-01
      2.45652363e-01 2.04915255e-01 1.08529702e-01 1.30990475e-01
      2.26834565e-01 2.26538599e-01 1.57950684e-01 1.09139711e-01
      2.11134225e-01 2.45652363e-01 2.45652363e-01 1.99216127e-01
      1.32576957e-01 2.44688138e-01 1.63192749e-01 2.44688138e-01
      2.44688138e-01 2.33178556e-01 5.90737276e-02 1.80458575e-01
      4.03259508e-02 9.27318931e-02 8.47500935e-02 1.14094034e-01
      1.93113014e-01 1.91137955e-01 1.09745443e-01 2.04437487e-02
      1.10068601e-02 3.19365039e-02 1.69301435e-01 1.02145202e-01
      8.28991160e-02 1.75599441e-01 1.91605210e-01 2.44688138e-01
      2.44688138e-01 2.44688138e-01 2.26890966e-01 8.83013159e-02
      1.04422100e-01 6.79747835e-02 1.76208794e-01 1.87678739e-01
      1.27117902e-01 2.44688138e-01 1.77367017e-01 1.54108092e-01
      2.51820654e-01 1.56578526e-01 1.23776317e-01 3.84199470e-02
      4.97694723e-02 1.45438612e-01 1.72038436e-01 9.96565670e-02
      1.83006018e-01 1.68138221e-01 1.74531847e-01 2.51820654e-01
      1.37206748e-01 1.61705256e-01 2.50197709e-01 2.51820654e-01
      2.51820654e-01 2.42003500e-01 6.35820031e-02 9.15155187e-02
      1.68572918e-01 7.34213963e-02 1.08558737e-01 4.43198718e-02
      1.16029242e-02 7.50577375e-02 9.69430730e-02 1.04645982e-01
      2.51820654e-01 2.51820654e-01 2.37111434e-01 2.51820654e-01
      5.32950237e-02 1.45324022e-01 5.86129911e-02 1.45072758e-01
      1.13027014e-01 1.64086848e-01 2.38949895e-01 1.63278699e-01
      7.16091841e-02 8.61862451e-02 2.38949895e-01 2.14483202e-01
      1.44855469e-01 1.55795053e-01 1.05890103e-01 2.14272678e-01
      1.56772137e-01 7.42963776e-02 2.11135179e-01 2.38949895e-01
      2.38949895e-01 2.38949895e-01 1.11426301e-01 2.38949895e-01
      2.38949895e-01 1.57983497e-01 1.24027617e-01 5.17554469e-02
      1.05694652e-01 3.77689078e-02 6.81321397e-02 1.24226116e-01
      2.38949895e-01 2.38949895e-01 1.05469376e-01 1.36575073e-01
      9.54335034e-02 1.32517606e-01 9.65027139e-02 1.67026222e-01
      1.32520124e-01 5.49097955e-02 3.27041186e-02 7.52801448e-02
      1.14609525e-01 2.12852433e-01 2.68067509e-01 2.04634517e-01
      2.34584808e-01 1.19072370e-01 1.25487641e-01 1.74275804e-02
      9.72675979e-02 1.19835585e-01 1.91817075e-01 2.68067509e-01
      2.18488276e-01 2.12397844e-01 9.95826423e-02 1.31633580e-01
      1.68103322e-01 4.42333333e-02 1.15433641e-01 1.02480665e-01
      2.07943439e-01 1.14117302e-01 1.56301349e-01 2.04032719e-01
      1.49405330e-01 1.24206580e-01 4.08226475e-02 1.16099551e-01
      2.27640316e-01 2.68067509e-01 1.87621102e-01 2.68067509e-01</_>
    <_>
      8.06067511e-02 4.75721508e-02 6.87739253e-02 6.75512180e-02
      7.74802044e-02 7.78757855e-02 1.72709357e-02 3.17303389e-02
      1.03081040e-01 2.30009571e-01 2.51005501e-01 2.47887328e-01
      2.27991611e-01 2.24747032e-01 1.19490229e-01 1.46352164e-02
      1.23344079e-01 1.35213807e-01 1.34159371e-01 8.88181850e-02
      1.09607056e-01 5.67927174e-02 6.16050288e-02 1.73981294e-01
      2.51005501e-01 1.82879716e-01 2.51005501e-01 1.19911022e-01
      2.51005501e-01 2.51005501e-01 1.25657529e-01 2.03653857e-01
      2.12336078e-01 2.51005501e-01 2.51005501e-01 1.55608967e-01
      2.36357138e-01 2.44002417e-01 1.74722731e-01 2.44002417e-01
      2.23701358e-01 1.22492403e-01 1.60216708e-02 9.97601971e-02
      7.38823414e-02 1.76333919e-01 2.30233088e-01 8.35666209e-02
      2.44002417e-01 1.74198255e-01 7.06696585e-02 8.59717000e-03
      3.81833166e-02 1.17940027e-02 9.23636109e-02 2.44002417e-01
      1.61273658e-01 2.44002417e-01 2.44002417e-01 2.30449945e-01
      1.20821506e-01 2.44002417e-01 8.02463815e-02 8.93441066e-02
      1.01325929e-01 3.41988131e-02 2.44002417e-01 2.33891279e-01
      1.69189945e-01 3.32323574e-02 1.06673926e-01 4.63147610e-02
      2.05491170e-01 2.47696042e-01 1.97393239e-01 2.47696042e-01
      2.26089001e-01 1.65092260e-01 1.14080794e-02 4.38774526e-02
      3.34042571e-02 7.16586933e-02 1.79148719e-01 1.91799819e-01
      1.72843218e-01 2.47696042e-01 1.08023599e-01 2.19590291e-02
      6.88394457e-02 1.48932442e-01 1.11062668e-01 1.63532034e-01
      9.55262259e-02 2.45511860e-01 1.62243530e-01 2.45388806e-01
      4.46033292e-02 1.86436102e-01 1.35056898e-01 1.17711723e-01
      1.79938272e-01 1.34847015e-01 1.84214383e-01 1.60868213e-01
      2.11223572e-01 3.95985432e-02 1.61229640e-01 2.47696042e-01
      1.05632156e-01 7.28517100e-02 9.14013609e-02 6.46260753e-02
      3.92074510e-02 1.29916206e-01 2.30532482e-01 2.13445857e-01
      1.66408718e-01 1.17248133e-01 2.17500582e-01 2.06851289e-01
      1.15117438e-01 9.06394273e-02 1.34725317e-01 2.30532482e-01
      2.30532482e-01 1.41960874e-01 1.53252259e-01 1.53106853e-01
      2.26663083e-01 1.47475764e-01 7.50228018e-02 4.80564758e-02
      1.85301065e-01 1.54713154e-01 8.96643028e-02 1.63010195e-01
      2.30532482e-01 2.30532482e-01 2.27572620e-01 6.47081956e-02
      1.99951902e-01 2.08285034e-01 2.30532482e-01 1.85293898e-01
      1.06381632e-01 1.09623134e-01 8.64063725e-02 8.42343643e-02
      1.51680186e-01 1.81096628e-01 2.63151973e-01 2.44551733e-01
      1.22665323e-01 7.33322129e-02 8.34420919e-02 5.05300350e-02
      1.11335315e-01 1.49485484e-01 1.44020349e-01 2.13014409e-01
      2.24795312e-01 1.29104018e-01 1.23930544e-01 8.51154402e-02
      1.07622042e-01 1.04058169e-01 1.25679120e-01 2.13024050e-01
      2.63151973e-01 2.63151973e-01 1.88392937e-01 1.24112383e-01
      1.87452540e-01 1.17579445e-01 5.97969554e-02 1.37419328e-01
      1.85934186e-01 2.63151973e-01 2.63151973e-01 1.91161513e-01
      1.95327029e-02 1.00655802e-01 6.68132007e-02 8.31496492e-02
      5.71562611e-02 7.43333921e-02 1.35460049e-01 2.67053783e-01
      1.29398510e-01 7.77026191e-02 6.89145029e-02 6.27285242e-02
      8.27321187e-02 4.96681146e-02 1.05492182e-01 1.07443452e-01
      1.58777192e-01 1.26601800e-01 6.02182560e-02 2.74645835e-01
      1.16169624e-01 8.42939317e-02 7.93517008e-02 2.89878309e-01
      2.89878309e-01 2.89878309e-01 1.93296701e-01 1.90067142e-01
      1.33931890e-01 7.79718012e-02 9.87272784e-02 9.88506153e-02
      2.89878309e-01 2.89878309e-01 2.89878309e-01 2.11917579e-01
      1.93981037e-01 2.60976374e-01 2.17648700e-01 2.18062550e-01
      1.19775929e-01 3.11473440e-02 9.61130038e-02 4.67382111e-02
      2.83918697e-02 1.61173582e-01 2.60976374e-01 2.25877643e-01
      2.13654190e-01 6.81981444e-02 1.75268620e-01 8.45784694e-02
      9.68019590e-02 6.52394295e-02 1.26753375e-01 2.60976374e-01
      2.60976374e-01 2.60976374e-01 1.73597917e-01 6.22748360e-02
      1.32458463e-01 4.75853030e-03 1.04242703e-02 1.18258789e-01
      2.60976374e-01 2.30822101e-01 2.60976374e-01 1.34384885e-01
      1.18863054e-01 1.20432414e-01 3.76788294e-03 3.53041571e-03
      8.52738693e-02 2.34291896e-01 2.57013589e-01 1.56469807e-01
      7.86079913e-02 1.37652740e-01 1.40077204e-01 1.93671465e-01
      1.10734038e-01 1.57743007e-01 2.57013589e-01 2.57013589e-01
      8.21749270e-02 1.00051165e-01 1.61862671e-01 2.57013589e-01
      2.57013589e-01 1.94542542e-01 4.54326794e-02 1.24777831e-01
      2.57013589e-01 2.57013589e-01 1.44819215e-01 5.73970526e-02
      4.06720862e-02 1.16753252e-02 5.95148420e-03 6.42825365e-02
      1.65225923e-01 2.57013589e-01 1.84891701e-01 2.29033381e-01
      1.48324277e-02 3.32232863e-02 1.03422195e-01 9.11314860e-02
      6.74013570e-02 2.50231683e-01 1.24965310e-01 5.35350479e-02
      7.77746290e-02 2.50231683e-01 2.50231683e-01 2.50231683e-01
      2.14188442e-01 1.62648171e-01 2.27965459e-01 1.76298261e-01
      1.26178324e-01 1.35446057e-01 2.50231683e-01 1.68056771e-01
      2.13586986e-01 2.16939062e-01 4.68823053e-02 2.50231683e-01
      1.77352279e-01 1.78030133e-02 1.38855830e-01 3.26990522e-02
      4.38907444e-02 8.65494758e-02 1.13582976e-01 7.57191107e-02
      2.50231683e-01 2.50231683e-01 1.37981594e-01 1.53206259e-01
      1.10385373e-01 7.82159120e-02 8.08204487e-02 8.49091411e-02</_>
    <_>
      1.70238167e-01 2.72045210e-02 2.87260991e-02 7.52037764e-02
      7.68290088e-02 1.19231239e-01 2.70295441e-01 1.15937047e-01
      1.87223911e-01 1.04184531e-01 9.05257016e-02 7.15409815e-02
      6.32322878e-02 1.06161565e-01 4.28885855e-02 1.75438151e-01
      9.59860608e-02 8.38003457e-02 2.65676618e-01 5.48640937e-02
      5.13480157e-02 4.87720221e-02 4.84928750e-02 2.85884351e-01
      2.85884351e-01 1.92801565e-01 2.85884351e-01 2.62052149e-01
      1.46732688e-01 1.52720168e-01 1.05928645e-01 1.14657946e-01
      2.85884351e-01 2.85884351e-01 2.28230938e-01 1.19223036e-01
      1.54023618e-01 1.48112938e-01 1.32283673e-01 1.53137416e-01
      1.42238572e-01 4.35727723e-02 5.50497398e-02 5.89138083e-02
      5.09237237e-02 2.31325135e-01 2.13165700e-01 1.73697919e-01
      2.26450711e-01 2.31325135e-01 8.17788243e-02 1.09716535e-01
      9.90619287e-02 7.84908459e-02 2.23796368e-01 2.05764338e-01
      2.31325135e-01 1.62161455e-01 1.30700782e-01 2.31325135e-01
      1.27462178e-01 1.58360928e-01 7.16637298e-02 2.31325135e-01
      2.31325135e-01 2.31325135e-01 1.51388019e-01 1.73080355e-01
      2.31325135e-01 1.78452402e-01 1.30290896e-01 7.88186044e-02
      1.84146583e-01 2.36934528e-01 1.36455253e-01 2.00177774e-01
      2.36934528e-01 4.33187932e-02 1.09465964e-01 1.38891667e-01
      6.63776100e-02 1.00684270e-01 2.14646190e-01 1.33726791e-01
      1.35065064e-01 1.99847281e-01 3.42245884e-02 7.24782571e-02
      8.74065682e-02 6.85383528e-02 2.36934528e-01 2.36934528e-01
      1.30924538e-01 1.29185826e-01 1.41626373e-01 2.09285110e-01
      2.28192225e-01 1.82790622e-01 1.48037598e-01 2.36934528e-01
      2.36934528e-01 1.82336584e-01 9.37821418e-02 1.79527611e-01
      7.95192868e-02 1.44221470e-01 1.82537854e-01 1.99518427e-01
      2.51981616e-01 9.89713967e-02 1.10428266e-01 2.20529251e-02
      4.14621383e-02 1.70603141e-01 2.51981616e-01 1.20327242e-01
      2.01162145e-01 2.51981616e-01 1.68634713e-01 1.39069527e-01
      1.58730075e-01 1.82498932e-01 2.51981616e-01 2.50815123e-01
      2.06088185e-01 9.63658690e-02 1.36582866e-01 8.72130990e-02
      1.43436342e-01 4.87804487e-02 8.95569772e-02 6.84430674e-02
      8.94110873e-02 1.12105362e-01 1.15701266e-01 1.57945096e-01
      2.51981616e-01 2.51981616e-01 2.51981616e-01 2.51981616e-01
      1.26093522e-01 8.31151381e-02 9.18764770e-02 9.09310132e-02
      1.17440499e-01 1.60945371e-01 1.40667349e-01 1.76455215e-01
      1.28549859e-01 2.29562327e-01 1.70420900e-01 1.39402851e-01
      4.04384360e-02 2.06275955e-01 1.62229583e-01 9.21400785e-02
      1.14845157e-01 1.00279801e-01 2.39320830e-01 2.39320830e-01
      2.39320830e-01 9.01380330e-02 9.38413441e-02 2.39320830e-01
      1.96292147e-01 2.39320830e-01 2.23151267e-01 7.02147931e-02
      9.71310064e-02 1.25787124e-01 7.30562881e-02 1.12784170e-01
      1.92300379e-01 7.97980353e-02 1.79177016e-01 1.33080855e-01
      1.70029879e-01 2.30837241e-01 2.39320830e-01 1.20592251e-01
      2.09038705e-01 8.71032476e-02 3.53188962e-02 8.03522542e-02
      3.13795395e-02 2.42512926e-01 2.42512926e-01 2.21452430e-01
      8.35153386e-02 1.78682923e-01 1.41388848e-01 7.56967142e-02
      3.75246927e-02 4.00768556e-02 1.67248353e-01 1.63220480e-01
      2.30983347e-01 1.41311765e-01 1.14790566e-01 1.48217022e-01
      1.27685308e-01 6.79507330e-02 3.53301577e-02 2.26801872e-01
      2.42512926e-01 2.42512926e-01 1.32430092e-01 1.88754156e-01
      1.40578270e-01 1.68742940e-01 4.60508652e-02 1.01060830e-01
      2.42512926e-01 2.42512926e-01 2.42512926e-01 2.42512926e-01
      9.12845731e-02 6.91965371e-02 1.35198429e-01 8.64790082e-02
      1.21709287e-01 1.00826688e-01 6.11957423e-02 9.44611803e-02
      8.39687064e-02 1.09681897e-01 2.93123394e-01 2.93123394e-01
      2.16935813e-01 2.05174595e-01 5.73697798e-02 4.71431836e-02
      7.19950274e-02 4.92074899e-02 1.55552968e-01 1.19391546e-01
      9.79068577e-02 2.70939618e-01 1.86292440e-01 7.21022561e-02
      4.46536951e-02 1.02778465e-01 1.18948840e-01 2.93123394e-01
      2.93123394e-01 2.93123394e-01 2.93123394e-01 2.84202576e-01
      1.47859957e-02 7.85067491e-03 6.07247427e-02 1.04244210e-01
      9.13737640e-02 2.64792293e-01 2.64792293e-01 2.64792293e-01
      2.18538225e-01 3.83309163e-02 1.31244222e-02 9.41739455e-02
      8.00965130e-02 1.17774338e-01 1.50041088e-01 1.55230358e-01
      2.09854901e-01 1.96740404e-01 1.04910329e-01 5.01899458e-02
      2.49077961e-01 1.01928562e-01 1.56273514e-01 2.64792293e-01
      2.64792293e-01 2.64792293e-01 2.52183944e-01 1.89995244e-02
      3.35773863e-02 9.53110009e-02 9.46664810e-02 1.40851498e-01
      4.26216498e-02 5.94146997e-02 1.24853477e-01 2.52006322e-01
      1.46094978e-01 1.59489363e-01 8.85764286e-02 8.93868059e-02
      1.44558445e-01 1.89310431e-01 2.51669616e-01 6.84769452e-02
      9.25798118e-02 1.13569237e-01 1.07392445e-01 1.63759798e-01
      1.01828635e-01 2.34848186e-01 1.93259612e-01 2.51669616e-01
      1.12042300e-01 1.00523233e-01 1.74614981e-01 1.71974584e-01
      1.39866933e-01 2.51669616e-01 2.48256147e-01 6.80045858e-02
      1.53120369e-01 7.48813674e-02 2.04798222e-01 1.09176360e-01
      1.80703163e-01 3.19717675e-02 7.56414980e-02 2.51669616e-01
      9.51585397e-02 2.51669616e-01 1.76783741e-01 2.12895513e-01
      1.54965490e-01 1.95387945e-01 4.29854579e-02 1.27103105e-01</_>
    <_>
      6.51487857e-02 5.19890673e-02 5.70925996e-02 2.25954607e-01
      2.19432533e-01 1.26537874e-01 9.67535898e-02 4.80692759e-02
      6.20793663e-02 1.25417873e-01 1.41936526e-01 1.40558422e-01
      2.67890155e-01 2.67890155e-01 1.13394156e-01 2.79014893e-02
      3.10427044e-02 4.94499207e-02 9.01826024e-02 7.24015459e-02
      2.55579621e-01 2.25625083e-01 1.32949412e-01 1.85602471e-01
      2.54348367e-01 2.11174861e-01 2.02870846e-01 1.03938155e-01
      2.12162569e-01 2.67890155e-01 2.67890155e-01 2.67890155e-01
      1.58826619e-01 3.20854485e-02 8.15472454e-02 6.30589277e-02
      7.38492161e-02 6.35796562e-02 6.34354353e-02 1.08566530e-01
      1.64699882e-01 1.07325733e-01 2.26705670e-02 2.34933477e-03
      1.74922436e-01 2.68477976e-01 2.68477976e-01 1.44512787e-01
      2.43814722e-01 2.68477976e-01 1.18992820e-01 3.15913484e-02
      2.98882425e-02 2.68477976e-01 7.22432360e-02 1.35374814e-01
      1.64659873e-01 1.81617230e-01 1.47363067e-01 5.86127266e-02
      2.07541734e-02 3.00282370e-02 4.63171229e-02 2.68477976e-01
      2.68477976e-01 2.68477976e-01 2.68477976e-01 2.21732780e-01
      1.41570002e-01 5.20872027e-02 1.25066698e-01 1.71435237e-01
      2.31302306e-01 2.52345681e-01 1.20852195e-01 2.52345681e-01
      2.52345681e-01 4.98550162e-02 1.60192437e-02 5.47939502e-02
      2.09673166e-01 1.64376810e-01 1.08086474e-01 1.81493089e-01
      9.41597447e-02 1.40001252e-01 4.89952341e-02 1.31536024e-02
